<?xml version="1.0"?>
<opencv_storage>
<opencv_ml_ann_mlp>
  <format>3</format>
  <layer_sizes>
    225 30 44</layer_sizes>
  <activation_function>SIGMOID_SYM</activation_function>
  <f_param1>1.</f_param1>
  <f_param2>1.</f_param2>
  <min_val>-9.4999999999999996e-01</min_val>
  <max_val>9.4999999999999996e-01</max_val>
  <min_val1>-9.7999999999999998e-01</min_val1>
  <max_val1>9.7999999999999998e-01</max_val1>
  <training_params>
    <train_method>BACKPROP</train_method>
    <dw_scale>1.0000000149011612e-01</dw_scale>
    <moment_scale>1.0000000149011612e-01</moment_scale>
    <term_criteria>
      <epsilon>9.9999997473787516e-06</epsilon>
      <iterations>1000</iterations></term_criteria></training_params>
  <input_scale>
    2.0157101739727854e+00 -8.8226895572840236e-01
    2.0000010964620736e+00 -1.0010476692239489e+00
    2.0055502797757789e+00 -9.2822327084910394e-01
    2.0579315887465728e+00 -7.8653929831675296e-01
    2.0645861871590179e+00 -7.7611145674354698e-01
    2.0075965839201881e+00 -9.1655718386303875e-01
    2.0091420985684230e+00 -1.1002945733521312e+00
    2.0668962224955534e+00 -1.2942449644527130e+00
    2.0680686987585282e+00 -1.2971446602684382e+00
    2.0290419157235333e+00 -1.1855553811243262e+00
    2.0162491915709246e+00 -1.1358555655132538e+00
    2.0157101739727854e+00 -8.8226895572840236e-01
    2.0487053628777256e+00 -8.0232021540970622e-01
    2.0209026632343337e+00 -8.6549653325952092e-01
    2.0103971199042725e+00 -9.0309985805123860e-01
    2.0072329298576332e+00 -1.0887399556714701e+00
    2.0870939372960207e+00 -1.3418593481672845e+00
    2.0547567302126177e+00 -1.2629761263191692e+00
    2.0261719693710072e+00 -1.1753919068393068e+00
    2.0430436754886649e+00 -1.2301048307916047e+00
    2.0568621265508149e+00 -1.2685777932339581e+00
    2.0926383673584814e+00 -1.3541890167827659e+00
    2.1622943262830301e+00 -1.4920962942623213e+00
    2.1252469481074350e+00 -1.4220238741786919e+00
    2.1169286785068886e+00 -1.4053746410192329e+00
    2.1058754385442331e+00 -1.3826009423740673e+00
    2.0753514943897198e+00 -1.3147514702678329e+00
    2.1105294488195501e+00 -1.3922864426767714e+00
    2.0458263938129835e+00 -1.2382069692396906e+00
    2.0141494642100168e+00 -1.1262364543331402e+00
    2.0007997996980613e+00 -9.7211634247109990e-01
    2.0477349415401882e+00 -1.2436505404118421e+00
    2.1602907203992778e+00 -1.4884516167777224e+00
    2.1505191264458765e+00 -1.4704596749415260e+00
    2.0052407792270093e+00 -1.0750610250934334e+00
    2.0103971199042725e+00 -9.0309985805123860e-01
    2.0215273752756304e+00 -8.6364729749995528e-01
    2.0568621265508149e+00 -7.8828433331685677e-01
    2.0668962224955534e+00 -7.7265125804284041e-01
    2.0430436754886649e+00 -8.1293884469706035e-01
    2.0003169526068825e+00 -1.0179623444680050e+00
    2.0268746188949924e+00 -1.1779218989389746e+00
    2.2465924513585867e+00 -1.6349547159101758e+00
    2.2575885878780726e+00 -1.6524130083002857e+00
    2.1339303654284536e+00 -1.4390064453779310e+00
    2.0487053628777256e+00 -8.0232021540970622e-01
    2.0680686987585282e+00 -1.2971446602684382e+00
    2.2181487935352204e+00 -1.5887055233278435e+00
    2.0360853511470447e+00 -1.2088590514140045e+00
    2.0516817398956082e+00 -7.9704075968719434e-01
    2.4103253932298303e+00 -5.3254309735234995e-01
    2.4713579658041267e+00 -5.0979844949048481e-01
    2.8441519832433841e+00 -4.1098740700270892e-01
    2.9450070767117280e+00 -3.9163968454700465e-01
    3.1201154131347977e+00 -3.6265215796645295e-01
    2.6202863005043566e+00 -4.6369464375417407e-01
    2.0430436754886649e+00 -8.1293884469706035e-01
    2.0634485199743899e+00 -1.2856040517117928e+00
    2.1832692404011045e+00 -1.5294315411815067e+00
    2.0496866069250861e+00 -1.2491283824402095e+00
    2.0030870923534558e+00 -9.4596050120566344e-01
    2.0692528873332736e+00 -1.3000541700523185e+00
    2.1602907203992778e+00 -1.4884516167777224e+00
    2.0095512798011499e+00 -1.1026229011683797e+00
    2.3150851885920987e+00 -5.7452899444641614e-01
    2.5000000000000000e+00 -5.0000000000000000e-01
    2.3637165691989175e+00 -5.5194638212707714e-01
    2.3421641005918166e+00 -5.6162887857123145e-01
    2.5735163983786697e+00 -4.7697633770997333e-01
    2.5355213455557184e+00 -4.8851929589764626e-01
    2.1429908165383180e+00 -6.8665464906882234e-01
    2.0157101739727854e+00 -8.8226895572840236e-01
    2.0590122920889140e+00 -1.2742159839000504e+00
    2.0912330765601586e+00 -1.3510898515577150e+00
    2.0040924590016567e+00 -1.0660512766207764e+00
    2.0087420543419761e+00 -1.0979720967188602e+00
    2.1028407913913489e+00 -1.3762047064079508e+00
    2.1339303654284536e+00 -1.4390064453779310e+00
    2.0001853276945787e+00 -1.0137064906850011e+00
    2.1429908165383180e+00 -6.8665464906882234e-01
    2.2493076988354206e+00 -6.1002166910824496e-01
    2.1854634124850532e+00 -6.5220635869972787e-01
    2.2867184743824049e+00 -5.8903952324405406e-01
    2.2281966747946793e+00 -6.2296179284835540e-01
    2.1921551357484597e+00 -6.4731701390687502e-01
    2.0360853511470447e+00 -8.2722629973304018e-01
    2.0103971199042725e+00 -9.0309985805123860e-01
    2.0190861455180067e+00 -1.1480248973992435e+00
    2.0506787177188714e+00 -1.2518803062095309e+00
    2.0006856406484625e+00 -9.7415583549898965e-01
    2.0024264914911081e+00 -1.0504876149079005e+00
    2.0487053628777261e+00 -1.2463851474680199e+00
    2.0898406206855697e+00 -1.3480019082118440e+00
    2.0007997996980613e+00 -9.7211634247109990e-01
    2.1169286785068886e+00 -7.1155403748765578e-01
    2.1543789361458456e+00 -6.7676825219241221e-01
    2.1058754385442331e+00 -7.2327449617016593e-01
    2.2060428475794742e+00 -6.3755793291302076e-01
    2.1921551357484597e+00 -6.4731701390687502e-01
    2.1746709346105151e+00 -6.6037127857282651e-01
    2.0421372985164630e+00 -8.1471655574321711e-01
    2.0506787177188714e+00 -7.9879841150934050e-01
    2.0035719487235304e+00 -9.4199351306478019e-01
    2.0108338130583223e+00 -1.1096433711850637e+00
    2.0099696145976331e+00 -9.0501249662511229e-01
    2.0030870923534558e+00 -1.0571265911477923e+00
    2.0215273752756304e+00 -1.1578800777756753e+00
    2.0612076215011297e+00 -1.2798912246598637e+00
    2.0026378126527118e+00 -1.0526954784834150e+00
    2.1725652932947606e+00 -6.6200680664793232e-01
    2.1235544495707486e+00 -7.0488666022400770e-01
    2.0741078922303657e+00 -7.6231609442184123e-01
    2.0692528873332736e+00 -7.6919871728095512e-01
    2.0634485199743899e+00 -7.7784446826259723e-01
    2.0095512798011499e+00 -9.0692837863277032e-01
    2.0297842330688085e+00 -8.4166969245575729e-01
    2.0645861871590179e+00 -7.7611145674354698e-01
    2.0000888192711939e+00 -9.9061990734583738e-01
    2.0126728246858550e+00 -1.1190882407415592e+00
    2.0146603318627898e+00 -8.8602862762552015e-01
    2.0030870923534558e+00 -1.0571265911477923e+00
    2.0167976363199069e+00 -1.1382763622789840e+00
    2.0403560974586803e+00 -1.2220771599438378e+00
    2.0061962709299856e+00 -9.2432079498344888e-01
    2.3982109462696926e+00 -5.3740014921645463e-01
    2.2108258515550117e+00 -6.3431024432049554e-01
    2.0778749339033324e+00 -7.5717327434383219e-01
    2.1563331412463143e+00 -6.7512419814936953e-01
    2.0716566254575470e+00 -7.6575370553561684e-01
    2.0496866069250861e+00 -8.0055822448487646e-01
    2.0692528873332736e+00 -7.6919871728095512e-01
    2.1202128984060860e+00 -7.0821771161417946e-01
    2.0000274120928463e+00 -1.0052493799000692e+00
    2.0477349415401882e+00 -1.2436505404118421e+00
    2.0007997996980613e+00 -1.0286834572269612e+00
    2.0007997996980613e+00 -9.7211634247109990e-01
    2.0173555308362547e+00 -1.1407036509440605e+00
    2.0336463936275329e+00 -1.2010225822051608e+00
    2.0234594949545346e+00 -8.5811633032103296e-01
    2.2493076988354206e+00 -6.1002166910824496e-01
    2.1563331412463143e+00 -6.7512419814936953e-01
    2.0804470928421606e+00 -7.5375360641192413e-01
    2.1375086105337693e+00 -6.9161273367008869e-01
    2.1393205994686411e+00 -6.8995889490716389e-01
    2.1429908165383180e+00 -6.8665464906882234e-01
    2.1202128984060860e+00 -7.0821771161417946e-01
    2.1089644002761072e+00 -7.1991873768587533e-01
    2.0179228981596262e+00 -8.7478542391422542e-01
    2.0448881822978668e+00 -1.2354978860585017e+00
    2.0038277420708916e+00 -1.0638122149004630e+00
    2.0001853276945787e+00 -9.8647883700957750e-01
    2.0000888192711939e+00 -1.0094689119253566e+00
    2.0328537753694755e+00 -1.1984258382544657e+00
    2.0024264914911081e+00 -1.0504876149079005e+00
    2.1411479672751526e+00 -6.8830620518688146e-01
    2.0940565632814994e+00 -7.3675707357338616e-01
    2.0487053628777256e+00 -8.0232021540970622e-01
    2.1725652932947606e+00 -6.6200680664793232e-01
    2.1832692404011045e+00 -6.5383769921959778e-01
    2.1967086972398278e+00 -6.4406118871953055e-01
    2.1602907203992778e+00 -6.7183910362155552e-01
    2.1767940196146549e+00 -6.5873661954830920e-01
    2.0268746188949924e+00 -8.4895271995601773e-01
    2.0117348342238750e+00 -1.1143536411564710e+00
    2.0007997996980613e+00 -1.0286834572269612e+00
    2.0312988845989377e+00 -8.3804372830573981e-01
    2.0003959400282878e+00 -9.8029874338559020e-01
    2.0013445195204822e+00 -1.0373461122121872e+00
    2.0000537287624143e+00 -1.0073569042248391e+00
    2.1583036976090622e+00 -6.7348115380890106e-01
    2.0969319557729693e+00 -7.3337724945358307e-01
    2.1321639105239236e+00 -6.9658129851671646e-01
    2.2281966747946793e+00 -6.2296179284835540e-01
    2.2867184743824049e+00 -5.8903952324405406e-01
    2.4531249520624501e+00 -5.1631216268539526e-01
    2.2660764368641924e+00 -6.0033229165093271e-01
    2.2231316095745051e+00 -6.2620146908433705e-01
    2.0099696145976331e+00 -9.0501249662511229e-01
    2.0083511309513740e+00 -1.0956554337441526e+00
    2.0003959400282878e+00 -9.8029874338559020e-01
    2.0336463936275329e+00 -8.3262381142237207e-01
    2.0000098682235801e+00 -9.9686355735541787e-01
    2.0377625947455114e+00 -1.2141224255604146e+00
    2.0000010964620731e+00 -9.9895342723812453e-01
    2.0998598336666725e+00 -7.3000362803909458e-01
    2.2465924513585867e+00 -6.1163773544841105e-01
    2.5407923699304966e+00 -4.8687434942123653e-01
    2.5906171157352191e+00 -4.7200772579887762e-01
    2.7866142973563344e+00 -4.2309850588132825e-01
    3.4752326409895811e+00 -3.1659187410062151e-01
    2.1944225798699422e+00 -6.4568873816068451e-01
    2.1058754385442331e+00 -7.2327449617016593e-01
    2.0016698063062872e+00 -9.5996311129662781e-01
    2.0196820737725933e+00 -1.1504785844317182e+00
    2.0033250687627091e+00 -9.4397516329132891e-01
    2.0028580100215980e+00 -1.0549084597286533e+00
    2.0234594949545350e+00 -1.1653431646335020e+00
    2.0716566254575470e+00 -1.3059029199219303e+00
    2.0328537753694755e+00 -1.1984258382544657e+00
    2.0131557309569748e+00 -8.9169096774324641e-01
    2.0439606232305247e+00 -8.1116343058049101e-01
    2.0477349415401882e+00 -8.0408440112834623e-01
    2.0558038564941468e+00 -7.9003142966843132e-01
    2.0804470928421606e+00 -7.5375360641192413e-01
    2.0623223488642588e+00 -7.7957944286910719e-01
    2.0022240381388636e+00 -9.5393920141694555e-01
    2.0075965839201881e+00 -1.0910394000571495e+00
    2.0046487062171714e+00 -1.0705453823777564e+00
    2.0141494642100168e+00 -1.1262364543331402e+00
    2.0167976363199069e+00 -8.7852127404092273e-01
    2.0022240381388636e+00 -1.0482848367219182e+00
    2.0038277420708916e+00 -1.0638122149004630e+00
    2.0121991988822185e+00 -1.1167178800079329e+00
    2.0167976363199069e+00 -1.1382763622789840e+00
    2.0065327874360421e+00 -1.0841580296513067e+00
    2.0043661100757180e+00 -1.0682956544801472e+00
    2.0179228981596262e+00 -1.1431374742454008e+00
    2.0103971199042725e+00 -1.1072972618530339e+00
    2.0099696145976331e+00 -1.1049571179725208e+00
    2.0001853276945787e+00 -9.8647883700957750e-01
    2.0001853276945787e+00 -9.8647883700957750e-01
    2.0043661100757180e+00 -9.3607045559557089e-01
    2.0099696145976331e+00 -9.0501249662511229e-01
    2.0190861455180067e+00 -8.7106124811876307e-01
    2.0558038564941468e+00 -7.9003142966843132e-01</input_scale>
  <output_scale>
    5.2631578947368418e-01 4.9999999999999994e-01 5.2631578947368418e-01
    4.9999999999999994e-01 5.2631578947368418e-01 4.9999999999999994e-01
    5.2631578947368418e-01 4.9999999999999994e-01 5.2631578947368418e-01
    4.9999999999999994e-01 5.2631578947368418e-01 4.9999999999999994e-01
    5.2631578947368418e-01 4.9999999999999994e-01 5.2631578947368418e-01
    4.9999999999999994e-01 5.2631578947368418e-01 4.9999999999999994e-01
    5.2631578947368418e-01 4.9999999999999994e-01 5.2631578947368418e-01
    4.9999999999999994e-01 5.2631578947368418e-01 4.9999999999999994e-01
    5.2631578947368418e-01 4.9999999999999994e-01 5.2631578947368418e-01
    4.9999999999999994e-01 5.2631578947368418e-01 4.9999999999999994e-01
    5.2631578947368418e-01 4.9999999999999994e-01 5.2631578947368418e-01
    4.9999999999999994e-01 5.2631578947368418e-01 4.9999999999999994e-01
    5.2631578947368418e-01 4.9999999999999994e-01 5.2631578947368418e-01
    4.9999999999999994e-01 5.2631578947368418e-01 4.9999999999999994e-01
    5.2631578947368418e-01 4.9999999999999994e-01 5.2631578947368418e-01
    4.9999999999999994e-01 5.2631578947368418e-01 4.9999999999999994e-01
    5.2631578947368418e-01 4.9999999999999994e-01 5.2631578947368418e-01
    4.9999999999999994e-01 5.2631578947368418e-01 4.9999999999999994e-01
    5.2631578947368418e-01 4.9999999999999994e-01 5.2631578947368418e-01
    4.9999999999999994e-01 5.2631578947368418e-01 4.9999999999999994e-01
    5.2631578947368418e-01 4.9999999999999994e-01 5.2631578947368418e-01
    4.9999999999999994e-01 5.2631578947368418e-01 4.9999999999999994e-01
    5.2631578947368418e-01 4.9999999999999994e-01 5.2631578947368418e-01
    4.9999999999999994e-01 5.2631578947368418e-01 4.9999999999999994e-01
    5.2631578947368418e-01 4.9999999999999994e-01 5.2631578947368418e-01
    4.9999999999999994e-01 5.2631578947368418e-01 4.9999999999999994e-01
    5.2631578947368418e-01 4.9999999999999994e-01 5.2631578947368418e-01
    4.9999999999999994e-01 5.2631578947368418e-01 4.9999999999999994e-01
    5.2631578947368418e-01 4.9999999999999994e-01 5.2631578947368418e-01
    4.9999999999999994e-01</output_scale>
  <inv_output_scale>
    1.8999999999999999e+00 -9.4999999999999996e-01
    1.8999999999999999e+00 -9.4999999999999996e-01
    1.8999999999999999e+00 -9.4999999999999996e-01
    1.8999999999999999e+00 -9.4999999999999996e-01
    1.8999999999999999e+00 -9.4999999999999996e-01
    1.8999999999999999e+00 -9.4999999999999996e-01
    1.8999999999999999e+00 -9.4999999999999996e-01
    1.8999999999999999e+00 -9.4999999999999996e-01
    1.8999999999999999e+00 -9.4999999999999996e-01
    1.8999999999999999e+00 -9.4999999999999996e-01
    1.8999999999999999e+00 -9.4999999999999996e-01
    1.8999999999999999e+00 -9.4999999999999996e-01
    1.8999999999999999e+00 -9.4999999999999996e-01
    1.8999999999999999e+00 -9.4999999999999996e-01
    1.8999999999999999e+00 -9.4999999999999996e-01
    1.8999999999999999e+00 -9.4999999999999996e-01
    1.8999999999999999e+00 -9.4999999999999996e-01
    1.8999999999999999e+00 -9.4999999999999996e-01
    1.8999999999999999e+00 -9.4999999999999996e-01
    1.8999999999999999e+00 -9.4999999999999996e-01
    1.8999999999999999e+00 -9.4999999999999996e-01
    1.8999999999999999e+00 -9.4999999999999996e-01
    1.8999999999999999e+00 -9.4999999999999996e-01
    1.8999999999999999e+00 -9.4999999999999996e-01
    1.8999999999999999e+00 -9.4999999999999996e-01
    1.8999999999999999e+00 -9.4999999999999996e-01
    1.8999999999999999e+00 -9.4999999999999996e-01
    1.8999999999999999e+00 -9.4999999999999996e-01
    1.8999999999999999e+00 -9.4999999999999996e-01
    1.8999999999999999e+00 -9.4999999999999996e-01
    1.8999999999999999e+00 -9.4999999999999996e-01
    1.8999999999999999e+00 -9.4999999999999996e-01
    1.8999999999999999e+00 -9.4999999999999996e-01
    1.8999999999999999e+00 -9.4999999999999996e-01
    1.8999999999999999e+00 -9.4999999999999996e-01
    1.8999999999999999e+00 -9.4999999999999996e-01
    1.8999999999999999e+00 -9.4999999999999996e-01
    1.8999999999999999e+00 -9.4999999999999996e-01
    1.8999999999999999e+00 -9.4999999999999996e-01
    1.8999999999999999e+00 -9.4999999999999996e-01
    1.8999999999999999e+00 -9.4999999999999996e-01
    1.8999999999999999e+00 -9.4999999999999996e-01
    1.8999999999999999e+00 -9.4999999999999996e-01
    1.8999999999999999e+00 -9.4999999999999996e-01</inv_output_scale>
  <weights>
    <_>
      -4.0989779829929109e-02 7.6198052429577098e-02
      2.6854804205458011e-01 2.0946023474554867e-01
      3.2189104012977865e-01 2.2651421738151917e-01
      2.2596971893283216e-01 9.1922122708823426e-02
      -1.6602710906471271e-01 -2.5476910424891186e-01
      -6.2928016116016908e-02 2.7166009915309053e-01
      5.1603317376874125e-01 -2.1125121179159032e-01
      3.5819803460085592e-01 -2.4050539728532638e-01
      8.8112160098544334e-02 -1.1207698552270223e-01
      -1.8074022744388424e-01 -2.1311085663693397e-01
      3.1384789722095979e-01 7.0181797572921048e-02
      -1.4511804728039174e-01 -2.1269632711909597e-01
      6.1001434111267216e-01 -7.9716762673256170e-02
      3.3922642169069239e-01 1.3261093683220973e-01
      4.0960193174707303e-02 -1.6167417934827619e-01
      -2.3179874541137978e-02 1.5022810019769769e-01
      1.9309276889669935e-01 2.3765301702745978e-01
      2.7009214843485874e-01 -5.9268464400186953e-02
      3.3765642951274005e-01 4.0727118332211640e-02
      -2.1497072059370792e-01 -9.5817777605283469e-02
      -1.7301107179973133e-01 2.2936866091863012e-01
      3.9355080214636551e-01 -1.4425472762095468e-01
      4.0533449354711865e-01 -1.8142639062624918e-01
      -3.1110169157747510e-02 9.6596336568183075e-02
      -8.2943076876463864e-02 -2.8397825191364873e-01
      3.0339380954831296e-01 8.2837012081499461e-02
      -1.4326290629892000e-01 -1.7614664418564144e-01
      4.5529490662960820e-01 -1.1630654604875527e-01
      2.7862649668577177e-01 4.4471041604901458e-02
      1.2896443061322380e-01 -2.2183261918999025e-02
      4.3049158330076928e-02 3.2781760418594347e-01
      2.1267414767330833e-01 4.1224132731115937e-01
      2.9538766692850399e-01 6.0390018666884884e-02
      4.9711823786481724e-01 1.4606353143527584e-01
      -1.3454738131005867e-01 6.1353827695089729e-02
      -1.7799132693076165e-02 2.5025471357823231e-01
      3.4620026281592992e-01 -1.4413632257325618e-01
      3.7209009729869436e-01 -2.6897719424220490e-01
      -1.3807458905503925e-01 9.4390891079242187e-02
      -1.0577196698356227e-01 -3.3554567601824220e-01
      3.8418703483297018e-01 5.3857841290502625e-02
      -3.9195499977955228e-01 -2.0640986161795583e-01
      5.2588171661133876e-01 -2.0493074626501798e-01
      3.4231936824308190e-01 9.0884188533642343e-02
      2.9083504572984559e-01 -1.1884947723764501e-01
      1.0010412878678686e-01 2.4086106431363627e-01
      6.3452529897694968e-02 1.8777317088116693e-01
      3.6158012444705379e-01 -1.0454238310011149e-01
      7.8236431279605656e-01 -2.3035718516680151e-01
      -2.5368266556685708e-02 2.7192538853412912e-01
      -4.1367190912615322e-02 3.0464452010652060e-01
      5.8111318074178209e-01 -2.9098798276024157e-01
      2.3936279978850072e-01 -3.4162708454148172e-01
      6.2502445417888922e-02 3.0922275705540508e-01
      2.6977309729762844e-01 -3.2544554868506181e-01
      3.5203927161837645e-01 7.5570497848423612e-01
      -4.7060692236701007e-01 -2.5578579937124984e-01
      3.8517448989313707e-01 -2.2830109352307748e-01
      1.4693238271405806e-01 1.5886753885581045e-01
      6.4007530827417253e-02 2.0273346218632063e-01
      1.7209592483878995e-04 2.6448693442110544e-01
      -6.2321111413445474e-01 -1.5126115486955222e-01
      9.0528783420822559e-02 4.0249685082576875e-01
      -2.4847995549691243e-01 -5.3531078795005749e-01
      1.8693953459564022e-01 -2.5661742036672219e-01
      8.7718011735883811e-02 7.1267320405513271e-02
      2.5781376193729266e-01 -2.7428065680172583e-02
      1.5772865697225671e-01 1.1396019222842031e-01
      -6.8721011518613331e-02 2.8654365973785184e-01
      4.4807186873239074e-01 -3.9759302037228002e-02
      -1.2628940296797070e-01 5.1534598235935085e-02
      -2.5604285024744305e-01 1.0300589604030663e-01
      3.2745086472926571e-01 1.1476379679542396e-01
      -7.5057692984345198e-02 1.9739567891663118e-01
      -2.6689819893304872e-01 1.7456029681974503e-01
      1.6282164343541614e-01 8.1968220126493019e-02
      -2.5375938558765204e-01 7.9417482513824550e-02
      1.5667930940941510e-01 2.3758428463026987e-01
      -1.2685497718101715e-01 -1.9272822806452046e-02
      1.8830084334352679e-01 -1.1038515595821702e-01
      3.0098260821693118e-02 6.4039727527841414e-02
      -2.2634765662133674e-01 1.7041192811107936e-01
      2.3299121971032542e-02 -3.0876059598855476e-02
      2.1633964276904066e-01 2.6007101521581888e-01
      1.6735551571406243e-01 -3.5197333388306370e-02
      -1.2811164921701873e-01 1.6762636345344517e-01
      -5.2826484190238172e-02 -9.4454837052354468e-02
      -1.4984036761822189e-03 1.0131551998515337e-01
      -8.0142115159498997e-02 9.5182043959741822e-02
      -3.0453349612187613e-01 -1.8600626225897556e-02
      1.5955675945802844e-01 1.0300987758282511e-01
      -2.9508618387017177e-01 -6.2851590319906656e-02
      5.2908375853748552e-02 -1.5719666829083700e-01
      -7.2126798695303460e-02 3.7715079228419809e-02
      1.7912962294448204e-01 -2.5615932683765247e-01
      2.8485047884314021e-02 -3.6128782422291485e-02
      -2.6477940219008861e-01 3.8990944714023049e-02
      -1.3526437851085446e-02 -1.0294077050563437e-01
      1.8906313761703003e-01 5.4323323903280214e-02
      8.1925082401360289e-02 1.0684940609427940e-01
      -3.0072098734550479e-01 1.0236226554338461e-01
      -2.4329734446216975e-01 -9.0893653674744335e-02
      -1.0760893237457753e-01 2.1724878532886704e-01
      -2.6653036290670484e-01 2.2547715409456634e-01
      -5.8538657945632060e-02 2.2033801223718358e-01
      -1.1327429487221003e-02 -1.9233566254963202e-01
      -1.1304803341401745e-01 -2.0714579703162514e-01
      3.8639121110327815e-02 -3.3572558433089689e-01
      -3.8181397416116043e-02 1.3623152821671872e-01
      2.0466288747529419e-02 3.9591438088730301e-02
      -2.0647529820242369e-01 -6.3835156633509818e-02
      -3.0103774296072938e-01 -1.9141250310731488e-02
      5.8224331929224767e-03 -1.5222286360897319e-01
      1.2645699907095384e-01 6.5121847235624752e-02
      1.1603003296263214e-03 2.7591467398508457e-01
      -4.5876617276339843e-01 -2.2296568234821776e-01
      -2.1960491250871225e-02 -1.2308774113534789e-01
      -2.4792791781222454e-01 -4.7664000599112029e-02
      -4.5132035924128555e-01 2.4156017383700143e-01
      -2.6149538361213743e-02 -1.2617826339378976e-01
      -1.2004610804682379e-02 -1.8199554923841313e-01
      -1.0719577849118016e-01 -2.0817222916931491e-01
      3.1853046907041292e-02 -3.5466749101265305e-01
      -4.2034356999083602e-02 1.3513872226490378e-01
      1.2614371557712887e-02 4.0870444451154897e-02
      -1.6070204342707081e-01 -6.4510949021107822e-02
      -2.9914367804351583e-01 -2.6684476237215014e-02
      1.5317370916570140e-02 -1.4680494773749428e-01
      1.2810171125273509e-01 7.5105441503103373e-02
      -2.7123812382399640e-03 2.6949229074883618e-01
      -4.7388944006654954e-01 -2.1210412608374068e-01
      -1.9113828334668098e-02 -1.3194668481918675e-01
      -2.5640119126433369e-01 -3.4863463579337090e-02
      -4.4462101861113079e-01 2.2836318375525022e-01
      -9.0811171197385784e-02 -1.1343287684400238e-01
      -2.4964485780916586e-02 -1.7296500851849161e-01
      -4.7547262525220374e-01 -1.1750466691795503e-01
      -1.8953744595115188e-01 -2.7599474165595594e-01
      -3.6975083230568428e-01 1.3836557522297897e-03
      1.5366176911125670e-01 2.0368294770529058e-01
      -1.5773295025032019e-01 -2.4459556110319823e-02
      -6.3616556983521616e-02 3.3278194410198436e-01
      -2.2439712476537899e-01 -2.1526719049160004e-01
      5.3022408297840953e-02 1.4986734785947170e-01
      8.3441631426997606e-02 3.0415943738361478e-01
      -4.6399833894858611e-01 -1.5660606955496992e-01
      1.9287309346051912e-01 1.3102104606111639e-01
      -1.4711114040114487e-01 1.4724895598715010e-01
      -3.7505580763436580e-01 1.1699976297414238e-02
      -2.5929144634079604e-01 -2.4288770269902779e-01
      -9.0938717478266179e-02 -6.5585278444393158e-02
      -5.6989828551861910e-01 -1.3444104168502538e-01
      -4.8310447967171827e-01 -3.0677372581241008e-01
      -3.6851426685660799e-01 2.7880847133945807e-01
      -1.2400546896410529e-01 1.6431344950611382e-01
      -6.3479620426247760e-02 -1.3602244049770976e-01
      -3.4180277013990290e-02 3.5562572432715750e-01
      2.2667560724746773e-02 2.4382704578350858e-01
      -2.8279030142274220e-01 1.0528068293507344e-01
      -2.1796812751317556e-02 3.8142923379279675e-01
      -5.3908722794578889e-01 -3.6794381388013997e-02
      9.9111586578157621e-02 2.6715861385360928e-01
      -1.9237625339995126e-01 1.8406587128302879e-01
      -2.6779025760556807e-01 8.2974641116399767e-02
      1.3636724492619913e-03 1.9349225893868566e-01
      -5.8680638797560171e-02 1.2909879796133046e-02
      -3.1743761950028232e-01 -3.2236880027002635e-01
      -3.4422359075157549e-01 -1.3599431761097902e-01
      -4.2563349877251971e-01 1.9652756441004501e-01
      1.4930243488381284e-02 1.5192841526382747e-01
      1.7667529392302438e-02 -9.2005038795126420e-02
      7.8231953061127874e-02 4.6958533524655249e-01
      4.9476286401644622e-02 2.2177882965406789e-01
      -1.8571231126108670e-01 -1.0675271967555666e-01
      -4.3793790932793009e-02 3.3742617280994691e-01
      -5.3675294627968428e-01 -2.9846153388966123e-01
      3.5847407033900397e-01 2.3180695648782074e-01
      -1.3466729591029605e-01 3.3113718609916248e-01
      -4.6072097069617540e-01 9.3694674365563280e-02
      1.2759878558240684e-01 -2.2487295379216021e-01
      1.6626897489668319e-01 1.1546037132112193e-01
      8.8318983140978774e-03 -6.9036555489471435e-02
      -2.7519419696491184e-02 3.8702924255618620e-01
      1.9108338436256833e-01 -3.4076248080607380e-01
      1.8835379244369357e-01 1.1586914829654852e-02
      4.3656038815127113e-02 4.5256364951544809e-02
      4.9173680238451278e-01 2.9526823061944912e-01
      -2.9397315987979561e-01 2.6478980676043018e-01
      -2.1342027009983100e-01 1.1453314298871071e-01
      1.3068992800891327e-01 -1.2579653404517038e-01
      9.1621220385040031e-02 1.1510355391910414e-01
      3.2804031390745264e-01 1.6481260152713373e-01
      2.7938114619826288e-01 2.9728585590336148e-01
      -3.4124204695568819e-03 3.1418021762940535e-02
      5.2109792753224327e-01 -5.2218421991472730e-01
      1.9046009667703689e-01 1.1512867607972509e-01
      1.5806418230248748e-01 1.4260511370983092e-01
      -7.5442355023839849e-02 3.1262586005068138e-01
      -2.2600957813332375e-02 3.2398065428394143e-02
      -8.3472365770184950e-02 2.0701007901139792e-01
      -3.2609298827672994e-01 -3.8846490166728954e-02
      1.8490283046974096e-01 3.9860074298650966e-01
      -1.3344382315940104e-01 2.3803606007718453e-01
      -3.5182748819755016e-01 1.1405280830240504e-01
      5.5907204116832176e-01 -3.4239766789174958e-01
      3.8507622777009748e-01 -5.4502471170758258e-02
      -1.3211662740677838e-01 2.1512020844873825e-01
      3.9301086935399449e-01 -4.8734942356971574e-02
      1.4359137907600172e-01 2.0715523011845077e-02
      3.9850885653532980e-01 -2.6847321343567104e-01
      2.9879365607296583e-02 2.0091814575640795e-02
      8.0148729035914829e-02 1.9469152516214918e-02
      -1.0759557569881521e-01 6.4040586843087804e-02
      -2.1062585118200677e-01 1.3493842175684009e-01
      -2.0542497256507683e-01 9.4256269853047497e-02
      -1.6370759293959994e-01 8.7671823423316753e-03
      2.6191048451370713e-01 5.5524855186973854e-01
      7.5333055063965329e-02 3.2127095946919815e-01
      -3.8657307630514920e-01 5.9609703983210518e-03
      7.4578380168376834e-01 -1.7725207129035736e-01
      2.4178298717507143e-01 1.1220160165971615e-01
      1.9654784170913441e-02 2.2880461134468141e-01
      4.6686863763342629e-01 -1.2645928905729056e-01
      1.1254705106021928e-01 9.0011561384167979e-02
      3.8689818987559182e-01 -2.6216786301202788e-01
      -1.4044584446827615e-01 7.7588974445703437e-02
      2.8829191623368194e-01 2.6090189972868727e-01
      2.8184710412022707e-01 -2.6052136247589808e-01
      3.1685893083051037e-01 2.4524570972568621e-01
      -2.6219233539069486e-01 -1.2805068805255376e-01
      -8.7641633210628886e-02 2.7327967422631716e-01
      5.2382676468582978e-01 -3.0599453341017907e-01
      3.8417047885017719e-01 -1.7149849430163050e-01
      1.8731454420509587e-02 -1.7607301436315018e-01
      -2.5690373112487597e-01 -1.9770157729537208e-01
      2.7387759901641778e-01 1.0535711095691763e-01
      9.8772680439192476e-02 -1.6662932473327696e-01
      4.5642193496918543e-01 -4.1036228456233420e-02
      2.8556581389110919e-01 7.7127916886399847e-02
      1.2226994376525798e-02 -1.6381450286105648e-01
      -1.5810961873214394e-01 1.5710984797639497e-02
      1.5842100770901615e-01 -6.1872795383796683e-02
      2.0433997130324091e-01 -3.2486591681098997e-01
      3.8719925178342829e-01 3.8562352427479400e-02
      -3.0161105418438239e-01 -7.2700713725155552e-03
      1.2420930373266288e-01 1.6753402121679950e-01
      4.4995696962558807e-01 -2.4158041785791662e-01
      4.5710117834663827e-01 -6.0647668855578513e-02
      -1.5194006629594944e-01 6.2573963337913610e-02
      1.5374800015152250e-02 -2.0374971780389006e-01
      2.1505552414822962e-01 6.4661612334497007e-02
      1.2427496993939949e-01 -1.0899975885440855e-01
      2.8609276067038586e-01 -5.0758463551282364e-02
      1.6338387292397269e-01 -8.6039972392642383e-02
      7.1252935144776361e-02 1.3487881325384732e-01
      -9.0112683576346608e-02 2.2893067797796718e-01
      1.0611034136480248e-01 7.8487892732886227e-02
      2.3576383073998813e-01 -3.5400412688455604e-02
      6.4429846613781994e-01 -4.2779551113436634e-02
      -5.4854639159801620e-02 7.4152471189261729e-02
      4.2500247059474383e-01 1.6169851300703972e-01
      2.7238882870641218e-01 -2.9770031424672805e-01
      3.3091090434590698e-01 -7.8111778491471249e-03
      -2.5888156344049984e-01 9.6602558693064666e-02
      -4.6362834308588700e-03 -2.3711581505061055e-01
      2.6718293344341781e-01 -9.8846692117906088e-02
      -4.0611389113236418e-02 -8.8331173347770464e-02
      3.3236341177834228e-01 -2.1548370873570785e-01
      2.1363820912946224e-01 -2.1979343694994233e-01
      3.3419175687097291e-01 2.1584403170423258e-01
      1.4533427184632103e-01 3.5266678356800241e-01
      2.5544160475866121e-02 7.6049867775806301e-02
      5.7295750524649136e-01 -3.0504712507391341e-01
      7.5961280805348874e-01 -2.1163359538772628e-01
      1.3393658637597064e-01 1.5960410394775792e-01
      2.2479251493143199e-01 3.8355712831463235e-01
      3.8399187511245880e-01 -1.5476742429734297e-01
      1.1378035337658325e-01 -2.3476779537158315e-01
      2.5406132624959898e-01 2.5201771004972973e-01
      -3.8214900381797129e-01 -4.2368168338797485e-01
      2.7395671011140593e-01 2.8892866495530534e-01
      1.9729203700445654e-02 -2.3892603574473653e-01
      2.2812096048080091e-01 -1.7868070126051641e-01
      8.9417190434835384e-02 6.1532216989073532e-02
      1.4223656191245596e-01 4.6656233560061477e-01
      -3.9534190573816151e-02 -1.7829667781075237e-01
      -7.8390137995621223e-01 5.8793718072901319e-02
      1.9798008124458838e-01 1.6148976192285860e-01
      2.6011632226427833e-01 -4.0085781150393351e-01
      1.9407281110202768e-01 -2.5298211498640883e-02
      2.3139075596003972e-01 4.3934537942748070e-02
      1.9589472581422149e-01 1.4155631069285235e-01
      2.2733007843796363e-01 1.2693401356130440e-01
      1.1341396547358545e-01 4.4343623628474177e-01
      -2.1764754590939853e-02 1.1683895036468110e-01
      -1.5862422842163318e-01 1.2205391184596863e-01
      1.7276866610032471e-01 -6.2044561917217113e-02
      -6.9655394875676346e-02 1.4661675385057038e-01
      -2.6887544543934322e-01 1.4282697635920138e-02
      -2.8708672303333649e-01 3.7375169999301733e-01
      -2.0976424554583265e-02 4.8555742782981429e-02
      -2.5907550790959344e-01 -1.2173208528316815e-02
      9.5866529214741869e-02 -8.7745843073498600e-02
      -1.0898473149553763e-01 -5.8656107600781014e-02
      5.0473477810245096e-02 1.1609736638565953e-02
      -8.4913737764316932e-02 4.8661117902196613e-02
      5.2201191402085352e-02 1.5867773298110899e-01
      -3.3769855942331589e-02 3.4843989515711854e-02
      5.7798805269448507e-02 3.0706442340446127e-01
      -3.1400476958739335e-02 1.4381094040558179e-01
      -2.7563710376942713e-01 6.8716997338074362e-02
      1.1979279351878815e-01 -1.0431920915483624e-01
      -3.9524503955992614e-02 -8.6914384546481746e-02
      -3.7278974748446003e-01 8.7498985789518938e-02
      -1.5433304639362366e-01 1.8636581626233825e-01
      4.8653625812692662e-02 6.0373898843131463e-02
      -4.0091322456899509e-01 -2.3652354516800547e-02
      1.6533369034784931e-02 -1.0734855869040695e-01
      -1.4590685489174607e-01 -7.1399212002848766e-02
      1.0726523194476716e-01 8.4053183872481035e-03
      -8.6261186869281886e-02 4.9394569286306637e-02
      4.5006898123364572e-02 1.4666121872625029e-01
      9.9463432870698462e-02 -1.7943479291357724e-02
      1.0150984176462229e-01 2.8905744183044824e-01
      -1.2466275056452353e-01 1.8807678309783490e-01
      -3.3355588959268406e-01 -1.1798063005194333e-01
      4.4755011080301971e-02 -1.2463782146932396e-01
      -9.4478552377381134e-02 1.4352780648597642e-02
      -4.4513909158452408e-01 3.6844167885451987e-02
      -7.4624334257772804e-02 -5.8189839238150052e-03
      -2.5158315777982859e-02 -1.3930347283083416e-01
      -4.5456802222019721e-01 -2.0766370648793553e-01
      -2.3615606518582136e-02 -2.0423639925529036e-01
      -1.0510418106490779e-01 -9.1768162879903026e-02
      4.0710631346986617e-02 -3.3320166870642778e-02
      -2.1854618809187015e-01 9.8074046529039033e-03
      5.6427497420442646e-02 -2.2475755114926017e-02
      1.2356383662022198e-01 -4.0306411570970946e-03
      1.3064329742760744e-01 2.1043038163405867e-01
      -1.0792519382829664e-01 2.7603370438421371e-01
      -4.4645222587029171e-01 -2.6961661650608976e-01
      9.7865165331526380e-02 -7.6659469018764664e-02
      -1.8695857027091364e-01 -2.4030547413876585e-02
      -5.3551438724169831e-01 1.0514091682609289e-01
      -3.0742078955652019e-01 -6.1517016395511012e-03
      -3.8963263123509111e-02 -2.2261601723000901e-01
      -4.3132659160365611e-01 -2.0378510311743223e-01
      -4.1708494542274889e-03 -2.4471285011728935e-01
      -9.3290374361100006e-02 -5.9725909179758348e-02
      5.1379030342335603e-02 1.8817803687469375e-01
      -2.3922154739564713e-01 1.7787021593582981e-02
      6.6876581707001642e-02 -3.0890511405634228e-04
      1.1350646187487776e-01 -9.7938811860269995e-02
      7.4904499943678760e-02 2.6024785528620942e-01
      -2.4930361047419750e-02 2.5001669914230013e-01
      -3.9835615869248414e-01 -3.0255728088753625e-01
      2.3116745679882475e-01 -1.0624173275203831e-01
      -1.3771138008232287e-01 -1.2241591448934479e-01
      -4.6601660039433224e-01 9.2952685332646529e-02
      -1.4753717422393559e-01 -2.3728849113950758e-02
      -6.4894498417344309e-03 -3.1748633114636146e-02
      -4.3832550627808498e-01 -4.0044276653955331e-02
      4.4683086369539583e-02 -1.4903009593387034e-02
      -7.8528562086200807e-02 -6.7834720456911329e-02
      7.7971527016030925e-02 1.8505098943081774e-01
      -4.0585940352830328e-02 4.5279698087140170e-02
      6.0087481275700703e-02 1.1991890496190999e-01
      1.2241613053685817e-01 -5.4482899649050939e-02
      6.0875968126055571e-02 2.4120023939449931e-01
      -6.4504147229753644e-02 2.1809873095218854e-01
      -3.3896905005562350e-01 -3.0029261773379418e-01
      1.9276556343037643e-01 -1.4222070854509694e-01
      -1.2077678186805063e-01 1.5885776900337883e-01
      -2.0565642724597019e-01 2.5394670679315313e-02
      -1.0435612298289738e-01 -1.5196985945965397e-01
      -1.3718371914716075e-03 -5.1147080679792442e-02
      -4.3138046246305423e-01 -3.8577543216087182e-02
      6.3873037593091986e-02 -6.1970484867057515e-02
      -9.8322478322215606e-02 -5.8256506076218892e-02
      9.8004548409857645e-02 1.6195493641053188e-01
      -6.5681438606330092e-02 4.7973518544810100e-02
      7.2030066898770853e-02 1.7709967725294556e-01
      3.1405729021727052e-01 -6.2818763946199771e-02
      9.1996883865748835e-02 1.7362743123359117e-01
      -7.3941680472333612e-02 2.0398267422714692e-01
      -3.2450101303778356e-01 -2.2483113530883647e-01
      1.4688759440007307e-01 -1.3868886494708715e-01
      -1.1215840617287658e-01 1.7793970454995464e-01
      -1.8160423204210380e-01 -1.0028248037947282e-01
      -3.7166000280730782e-01 -2.7329103567907426e-02
      -4.8710068245060523e-02 -2.8483726261231190e-01
      -5.8933903186591963e-01 -2.2609858791927697e-02
      -2.5252050131838633e-01 -8.8341059228012775e-02
      -9.0138570039599422e-02 1.1779815453572659e-01
      -3.9499672598697778e-02 2.4542408918322128e-01
      1.1675774823074454e-02 -3.7094492739034139e-02
      -6.5541968077892185e-02 4.5051810110758372e-01
      4.5199395295877978e-02 2.0466372702313596e-01
      -1.7356221609185762e-01 2.1168916382588501e-01
      -1.6496931645072634e-02 4.1480102463061541e-01
      -5.2886515956066804e-01 7.3720426373299883e-02
      4.7213052202157751e-01 1.6647116089993355e-01
      -2.7337143558056337e-01 2.2054458539294233e-01
      -3.6317676992184567e-01 -1.7347709095152383e-01
      -1.7215430593539227e-01 -9.6256132099725680e-02
      -5.3135392983538234e-02 1.2022505023088109e-01
      -2.6818085552850901e-01 4.2438500993043728e-02
      1.0512058490301820e-01 -1.4819529454743616e-01
      1.7945758599671474e-01 2.3259082872982034e-02
      2.0277444572110899e-03 3.4579232991861379e-02
      7.7371966277231488e-02 9.3827748766495911e-02
      1.4820650326970747e-01 9.7287144635555170e-02
      -9.0186247903109223e-02 2.6048197343980617e-01
      -2.0022510497188284e-01 2.1030839029270315e-01
      -3.0004040705908136e-01 -7.4866581424016351e-02
      3.3503446430535808e-02 1.5500392804989962e-02
      3.6207466138785216e-01 2.7638909637165102e-02
      2.2269507047543205e-01 1.8830597746023384e-01
      6.1148840582742871e-02 1.6134138175833895e-01
      1.7309620842242490e-01 3.4770552461689175e-01
      6.0510689241015395e-02 2.5570811896220552e-01
      7.2740351917116960e-02 4.9684464049197241e-02
      -2.2960409872393478e-01 3.7252501367924845e-01
      5.5816735366472602e-02 1.6451770190545859e-01
      -4.2908001343295241e-02 -1.0206737620285235e-01
      1.6429564669409949e-01 -1.3058561231296198e-01
      9.2354295131166567e-02 4.4613528441713658e-02
      -1.0415629209653954e-01 4.5678996593061977e-01
      -4.4664461804735733e-01 3.0092653867758584e-01
      8.2354904698199463e-02 -7.9362373430461874e-02
      1.9163093568746722e-01 -5.8756114446011205e-02
      3.7135621951748732e-01 2.3195971783719610e-01
      1.6516544349820364e-01 -3.2273886836492897e-02
      1.6547111464056469e-01 -1.9930177017006354e-01
      7.2417863934140403e-02 1.3657157567656678e-01
      1.4463297534924033e-01 2.1407237324621101e-01
      -6.2796079444877514e-02 -7.3597103761056770e-02
      -1.8156541329027351e-01 2.9304957047069613e-01
      -4.1859597842781218e-02 5.5732253355474964e-02
      -3.6901444817077814e-02 -1.4463870618719638e-01
      2.7608134718783939e-01 -1.7252014830282586e-01
      2.9115917134924463e-01 2.9625267418213458e-01
      -2.2748399618906309e-01 5.7396314341417709e-01
      -4.1105250750035738e-01 3.5562460169721255e-01
      3.8813709101906729e-01 -1.6002835615949060e-01
      2.9652838490629718e-01 -8.9765234325603876e-02
      1.6968384060207883e-01 3.6529933030365408e-01
      2.4199816800614438e-01 -9.3985230301257078e-02
      2.2247274728710062e-01 4.2557534327189284e-02
      2.9629733594247942e-01 9.8195416726858470e-02
      -9.1445117189295239e-02 -8.7605542798980279e-02
      2.3556065769994297e-01 -2.6585100439728310e-02
      3.1684681768069389e-01 -4.4067428164635741e-01
      5.8202786567586873e-01 -1.9236440893045365e-01
      -1.7256931672819223e-01 -1.2606336662636244e-02
      -3.8780816320002603e-01 2.9637161524899536e-01
      5.4803207961611278e-01 -2.5464106946566151e-01
      2.7280182424234850e-01 -1.5108374160248855e-01
      1.1189402440660517e-01 -1.9873358339580499e-01
      1.0870039451187992e-01 -1.9392156378252326e-01
      1.9322409502095050e-01 2.3921217690033530e-01
      -1.7733072391833143e-01 -1.9444936503657295e-01
      1.9426352450593698e-01 -1.6398341089139237e-01
      2.8116786519021114e-01 1.8613275739908777e-01
      -8.7920501590283001e-03 -1.8618985529012388e-01
      -7.1589603983961803e-02 1.1218596639787204e-01
      2.8453355364611804e-01 -4.9235369457627028e-02
      2.4077390190438275e-01 4.1510903603902904e-01
      5.5077606239011134e-01 -1.0784069292190461e-01
      -5.3918800433745966e-02 -3.2540102660149006e-01
      2.9015305587718948e-01 1.8267186226352772e-01
      3.3061573864753585e-01 -2.1619419973845630e-01
      1.8036084212679246e-01 3.5921315567204147e-02
      9.2519980090241213e-04 -4.4593376457506009e-02
      -2.0730141724274209e-01 -1.7815756809411012e-01
      1.6477826731814946e-01 7.6904678420533015e-02
      -1.4275870488257181e-01 -8.5061535085532436e-02
      1.1456351512810771e-01 -2.4344241015122764e-01
      1.3707493323883893e-01 1.4341958990399880e-02
      -1.0058593365541769e-01 8.2726403043528060e-02
      1.7943955895399477e-01 2.5790165284207528e-01
      9.3117908712178246e-02 2.7888114713252549e-01
      4.2800361988305385e-01 4.1360138961443166e-01
      8.6855372515858742e-01 1.5064431816154199e-02
      2.6531103895880387e-01 1.0979668390671860e-01
      2.4240209049574718e-01 2.9562766672300933e-01
      1.4658367582187207e-01 -6.5543487754847596e-01
      2.2210149742102803e-01 -1.8389849680708381e-01
      1.1120121449300872e-01 -9.3863121618787029e-02
      -3.6549519089163146e-01 -4.1338032270875569e-01
      5.7645755558682032e-01 1.1502153494999438e-02
      -5.2205664931646002e-02 -2.5013919250416405e-01
      3.1387840106547876e-01 -1.5118714308581191e-01
      4.6451666287285082e-01 -7.3972855964348228e-01
      -5.6226895402181024e-02 1.3349075557628368e-01
      1.0363227130741454e-01 -5.9292948370527586e-02
      -5.8274909639357199e-02 6.5633208834008604e-03
      3.5818851220342687e-02 8.5007311875231667e-02
      2.6277679674173893e-01 -3.4468392596026007e-02
      1.8010346070759140e-01 -1.7435883379472047e-02
      5.4061718530677061e-01 -1.8746946766561004e-03
      9.9607297961981880e-02 2.7471681074200532e-01
      -1.5324872284742105e-01 -4.3286673151122196e-02
      2.7543979348381969e-02 1.3044082182174049e-01
      -6.9856281267915366e-01 -7.6972900101165295e-02
      2.0005560213338469e-01 1.2371001428127598e-01
      -9.1292340834761121e-02 -1.4067686692277179e-01
      -4.5609157631211907e-02 -1.2939340512200451e-01
      7.4179484864011408e-02 -8.9428360333070403e-03
      6.2519162105601567e-03 6.5161996224612800e-02
      1.7806422737715563e-01 -3.1111995802794803e-02
      -1.6269768411761912e-01 -1.5835600519844106e-01
      1.0432610260036664e-01 4.5108629123826766e-01
      4.9891441484073229e-01 -4.5908124632113007e-01
      9.5385154230290564e-02 1.6882229781875607e-01
      4.1241626834178383e-02 6.1777592299094131e-02
      1.1730118623952170e-01 -3.2965178325288502e-02
      1.1059943277773013e-01 9.1702452756269925e-02
      1.7481021492371109e-02 -9.8691592686033974e-02
      -3.5156868655573709e-01 7.0113602885364987e-02
      1.8411752170135554e-01 2.3198855265175722e-01
      -9.4603045528526275e-02 -1.7708513190005856e-01
      -1.3204738782375303e-01 -1.7397724547657573e-01
      -4.6853785278285494e-02 -3.9872436068319674e-02
      -1.0600852351531359e-01 -2.6442535468555173e-01
      -6.0853890113147166e-02 4.6262441732421340e-02
      -2.8019762331611475e-01 -1.2500882574221189e-01
      -4.5424694921735798e-01 4.1427383543169483e-01
      1.4388424203387321e-01 3.7668735921862040e-01
      2.2725048433824356e-02 2.8773719411040764e-02
      6.2701453372111651e-02 -1.9083294772967799e-01
      3.3100039216638580e-02 3.6941611378925893e-01
      -6.6982034588670233e-02 2.8822299597093393e-01
      -1.6460673763903055e-01 4.6517657672415211e-02
      -4.7130801714628040e-01 4.8638369275685461e-01
      -4.0157628851393140e-01 2.9233131492561674e-02
      1.5159343428820005e-01 7.6595906480039028e-02
      -3.0498853891914940e-01 -2.7533871146395883e-01
      -4.1525552831333623e-01 -8.1330784336296910e-02
      -3.4101136331301116e-02 2.8823016782479841e-02
      -5.1255088243535231e-02 3.9375908633686119e-02
      -2.9514347569320493e-01 -7.2189203559327980e-02
      -3.6210318959108345e-01 8.3159554810328176e-02
      -4.6540167334000127e-02 3.1082104323220355e-01
      1.9700183709253697e-02 -7.2176910601048208e-02
      9.0293789021061291e-02 -1.7994704170798126e-01
      6.0804887205453240e-02 3.9192151630025246e-01
      -2.1924760002336022e-01 2.0172625899812296e-01
      -1.1130111701883157e-02 1.3877020961516141e-02
      -5.3646614448653573e-01 4.2912564465723846e-01
      -3.1360065018664690e-01 -2.5997705093818199e-02
      1.2846673829659225e-01 8.9382387281361192e-02
      -2.3819036038773769e-01 -4.4353692199211141e-03
      -2.9124433533140165e-01 2.5516317670887190e-01
      6.4602704975628922e-02 1.7825301326382900e-01
      -2.0060714779979991e-01 -2.0928470781627639e-01
      -6.3098283140262598e-02 -2.9947738261880613e-01
      7.6645831817953425e-02 2.4627027007773486e-01
      2.6584076229274423e-01 2.9198820312014703e-02
      5.6793430774944873e-03 -1.9597571065298033e-01
      -1.7350719197654216e-01 -5.7875502745657600e-02
      2.0581912430489810e-01 -4.7800257748837456e-02
      2.9139294330785870e-01 4.4048824557095362e-01
      -1.4944377142605211e-01 3.2464349512640434e-01
      -5.6093402448318319e-01 1.4726736952887470e-01
      -7.0135984296342518e-02 -4.4682870606323505e-01
      -5.1062346531538079e-02 -1.1647536953639183e-01
      1.7412550254716625e-02 -2.6171152980036971e-02
      -2.6611830572098605e-01 1.2019767151845709e-01
      5.0283384974893500e-02 1.0973927347880305e-01
      2.6977372595264084e-02 8.8729922930370242e-02
      -7.3528449195013237e-02 -1.1521489691852295e-01
      8.4722494581622565e-02 1.4207092740847851e-01
      3.6574566670896702e-01 6.3866521471054358e-02
      2.4237882053638113e-01 -1.5780829958336567e-01
      2.2910016594133484e-02 -4.2576704019291929e-02
      3.3406381425750004e-01 -5.2132706115438819e-02
      -1.1926831709140098e-02 1.5980856257729603e-01
      4.5619206130584594e-02 6.7983510582244402e-02
      -4.9731213976907590e-01 1.5639799111568048e-01
      -5.5042279961685793e-02 -2.5790733602787280e-01
      -1.6847042297986584e-01 -1.5658688529752152e-02
      1.8599453591114917e-01 9.8312750397463761e-02
      -9.7214277524465750e-02 7.5160790806877681e-02
      8.5593543541750861e-02 -1.1453810650706399e-02
      2.6554023729044054e-02 -6.7148265544735020e-02
      -1.0996377264066175e-02 -1.9597540915443198e-01
      -2.9506720193725321e-02 3.5725557133667601e-01
      5.4635566570062200e-01 -1.9944420712147032e-01
      3.9774992813572933e-02 -4.0345498155767911e-03
      -6.9997625258937171e-02 -9.4321507549601169e-02
      1.9102922816115483e-01 1.7607841699325372e-01
      -1.7884432402343822e-01 1.3097905815773087e-01
      2.3973247648043899e-02 2.0591330222160722e-02
      -6.8692813243437123e-02 1.3119616382157190e-01
      -2.0742940272553886e-01 -1.5820701433140386e-01
      -4.3291490375370077e-02 8.0449743348005601e-02
      -1.2239564298437981e-01 1.4805042444092728e-01
      -9.4901381962457912e-02 -3.2158192712779421e-01
      -2.2619228251190396e-01 -5.2283286615989612e-02
      2.0321777327366682e-03 2.1145202986229329e-02
      2.0820673360943620e-01 -1.2550135679084021e-01
      2.1419180780452826e-01 2.4648480079277157e-01
      3.8253179701454026e-01 -3.7489820869585709e-02
      3.3476067471093329e-01 -9.7334834867030262e-02
      6.5493203532112118e-02 1.1760644168364515e-01
      1.2887622718581870e-01 -1.3132442689070431e-01
      -1.6932482253041078e-01 -8.0554864390573216e-02
      2.7182251438730859e-01 -1.0279509654962998e-02
      -5.2321990965950016e-01 1.0221198892978561e-01
      -1.2718921298375960e-01 -5.6531932322808849e-02
      8.2613537806620549e-02 -2.1506329164536533e-01
      -5.4989254024317397e-02 1.5345673316603878e-01
      7.5098893678303205e-02 1.2295652998897967e-01
      -4.8518387716781763e-01 5.5762411770492203e-02
      1.5224936572093492e-01 -7.0319774223061821e-02
      5.2329696169690076e-02 7.4377289725496870e-02
      3.9880601156964673e-01 2.2761877441912942e-01
      3.5430010696883563e-01 -5.2492912957095317e-01
      3.0175611403003705e-01 1.0052570657412363e-01
      -9.8805120593757588e-03 2.6285940975774935e-01
      1.4104907763620153e-01 -2.6693305512477911e-01
      2.1260273344760716e-01 -8.3633043417625424e-02
      3.0438160124508223e-01 -1.1047555631634183e-01
      -4.0504685420570688e-02 -7.1854293505322922e-02
      2.3170465144849153e-01 3.2646836037052102e-01
      -3.9562870645086422e-02 -2.2194667732528819e-01
      2.9622403243147138e-01 4.7361404162109305e-01
      2.5511371089901458e-01 1.6535937905997061e-01
      -2.8011121036591313e-01 2.6490209655919153e-02
      2.5869541127505766e-02 1.4269918561865229e-02
      1.9661656181728818e-01 1.0706199379714093e-01
      2.4012121243037229e-01 5.4970897431269664e-02
      6.8493499883896984e-03 -3.6274279239349660e-01
      -2.3354525002643144e-02 4.0915654669495122e-01
      -3.9642822945046625e-02 7.4087411229605729e-02
      -5.9557720113485445e-02 2.5294619520207045e-02
      -8.7167485908654627e-02 2.6354229641684279e-01
      -2.6390663331247055e-01 1.6201596134214702e-01
      -2.7820005970636619e-01 -4.4001177826882509e-01
      4.5972758614114800e-01 -9.1714071136961232e-03
      1.3764795406345659e-01 -1.7627879115600426e-01
      1.6129670356009096e-01 2.5346294204934422e-01
      4.8388872002559563e-01 6.6634484965395827e-02
      -6.9710957458618814e-02 2.5486103343404054e-01
      1.7122263717611635e-01 -4.1696274281933593e-02
      -1.5982879677165865e-01 -1.2981949449133723e-01
      -1.1735740298444826e-01 -4.5563288567567688e-02
      -1.4850747121724400e-01 -2.0637276443357344e-01
      3.0238175559458669e-02 -4.4679421626413664e-03
      -2.6985073586296822e-02 -1.1488852001398503e-01
      -2.0328271897261160e-01 1.1974547048643123e+00
      -2.4506680467938510e-02 3.5551522443112132e-01
      9.2182316518898633e-02 -5.1971781723211076e-02
      2.9920707984640932e-01 7.6160011875513106e-02
      6.6717714970893099e-02 1.7529935945944614e-02
      2.0795118553285924e-01 2.3001879053540095e-01
      1.7101823581631886e-01 4.0726128155402691e-02
      4.3641017340307293e-02 1.3856757008787984e-01
      -2.4662802575424486e-01 3.0489307191466791e-01
      5.2154835566376498e-02 2.5456872510381062e-02
      -8.3027133606100815e-03 -9.4486942758044354e-02
      -3.6412393823489897e-01 1.4813773932353980e-01
      -2.9165040041441603e-01 3.1024116168002297e-01
      -9.3739274047331851e-04 -3.5567687181079310e-01
      2.0688773213862763e-01 -2.3578222393531478e-01
      -1.2408780761386287e-01 -6.7886041671053388e-02
      9.0125534131258567e-02 4.5877470490050865e-01
      -3.3964327889561774e-01 -1.0766184286139398e-01
      1.0493527476645181e-01 1.3088040363641595e-01
      -6.2252887571878704e-03 1.2780459066111560e-01
      4.0942758962404215e-02 3.4337357075427405e-01
      7.6812564812048734e-02 8.7562691886767546e-02
      5.9528476091868170e-02 4.7425109376429120e-01
      -1.6335985404742628e-01 3.4373455973393574e-01
      1.5002029744312279e-01 4.0610670898933898e-01
      3.1946885618485277e-01 2.0668972369885691e-01
      4.0108175296375348e-01 -7.4833502378748251e-02
      5.8544873345918713e-01 -4.3570838805603695e-01
      1.9567018157522112e-01 -1.2038976296992418e-01
      -1.3768964571289430e-01 3.2693415477956683e-01
      4.2484825166844359e-01 -1.2496136755588811e+00
      1.9245032380407429e-01 -1.5826892768729062e-01
      5.6143928760912482e-02 -4.5497363811817443e-01
      -3.4348677329652111e-01 -3.1959586544328428e-01
      4.4272741700118184e-01 1.9428843592960302e-01
      -1.5693009331920638e-01 -2.1233127910779220e-01
      3.4799976014221634e-01 8.3255940677795223e-02
      2.8046480745100327e-01 -2.6700231405881408e-01
      7.3737101754891607e-02 -1.8867148456945690e-02
      3.9679001466520292e-01 2.2919914522734464e-01
      1.7651101973233962e-01 1.4278248452398140e-01
      4.8410106320417717e-01 1.3929457275685675e-02
      6.5845362929203233e-01 -3.5922348791618719e-01
      3.5945576240838145e-01 -5.1330610769483209e-01
      -2.7659631698940179e-01 2.7288016073247223e-01
      4.4234256034935621e-01 -2.8184057061501393e-02
      -5.1885800538639580e-02 -1.6579088058159089e-01
      4.9101719955516082e-01 -3.8251449904963453e-01
      -4.4793401214819745e-01 -2.6038826273866622e-01
      3.4392764888791505e-01 -5.4311774337725605e-02
      -2.9428062257226602e-03 -2.4757063131452267e-01
      3.6213674446844085e-01 1.6640017825589673e-01
      3.0711774648299989e-01 1.3149625575241886e-01
      -6.6144577361632942e-02 -3.6938636074177672e-01
      2.1262608254403784e-01 1.3911465491587846e-01
      2.9029786425980803e-01 1.6612972982679045e-01
      3.5198647360003110e-01 9.0769994256906433e-02
      7.8190630977834874e-01 -7.9542807973674801e-02
      3.4408181891192441e-01 -1.9088958534965020e-01
      -3.1861074202032036e-01 1.8000805042100107e-01
      5.5681215538753537e-04 -1.0325768876219958e-01
      4.8810421482270139e-01 -2.9288988147250017e-01
      4.5337992981856223e-01 -5.8053234951169652e-01
      -5.5993318212623144e-01 -2.6442655105626739e-01
      4.3399903036026793e-01 1.7679885013793764e-01
      -2.1357514468209984e-01 -3.8869804672811120e-01
      2.5848568300774555e-01 1.9828727125031861e-01
      3.0276443274836157e-01 2.9167722352727327e-01
      -8.9908705471295730e-02 -1.6341527451913837e-01
      2.7144048336077597e-01 1.0739833438351387e-01
      1.0177450888700233e-01 6.8510513937317913e-02
      5.3056027815945407e-02 -9.0581080006552239e-02
      3.2266963838279744e-01 1.5954142982540404e-01
      1.5478791058077132e-01 -5.1132347073812888e-02
      -8.8531982183787522e-02 5.0660813751891839e-02
      -3.2759061967959337e-02 4.1933750141837095e-01
      1.9961751911290032e-01 -1.1876570441588565e-01
      7.0003307741883153e-02 -1.3161442835514314e-01
      -3.9022335851269946e-01 -2.0302193703439303e-01
      2.3809479319749854e-01 3.1167458175424906e-01
      -9.1511493992719004e-02 -1.6777137011044629e-01
      8.4076923940695797e-02 -7.4587408801415683e-03
      2.4463066714885148e-01 8.6961098026062958e-02
      2.0176593545721450e-01 -3.4139688258273243e-01
      -2.6663388289431298e-02 8.3330186072751680e-02
      6.5245232308586767e-02 2.1157808046723398e-01
      -1.5986796080274406e-02 2.6788022615911389e-01
      2.6693935220034731e-01 -3.2307071916746519e-02
      -8.8156821303830443e-02 1.2726723235850521e-01
      -3.0020755575953795e-01 -1.1119772006065239e-01
      9.1356169927702888e-02 5.3342739085425701e-02
      2.9866378225198564e-01 9.4068059491503833e-02
      -2.8993058795538862e-01 1.0949658507082656e-01
      -2.6037218986784388e-01 -2.4251146227172227e-01
      6.4786791293889245e-01 2.1289492983920286e-01
      1.7225145915103596e-01 -1.9030677847392180e-01
      3.3269516156669288e-01 -1.7416108527662646e-01
      3.3852385321965883e-01 2.7461307187029099e-01
      1.0480671315878086e-01 -2.8328033233046995e-01
      9.5356874591068629e-03 4.5939094745870851e-02
      2.4081197225210943e-01 8.0295452020994806e-02
      -1.8022106357573833e-01 5.7002940869119854e-02
      4.6652685888547069e-01 1.0482028827042016e-01
      -2.8321025379182979e-01 -1.7047487050487187e-01
      -2.2398821320705783e-01 -6.7672355507820608e-02
      3.9014079050711131e-01 1.9427261419245898e-01
      -6.2808837246796381e-02 1.9164636145086134e-01
      -3.1979331033199454e-01 3.1714844837752110e-01
      -2.0047914629657632e-01 1.8058857838065503e-01
      1.7295829964004902e-02 1.8193514021807039e-01
      1.6700011326023784e-01 1.6130295829371452e-01
      -3.2250326137062424e-01 -3.1859510682747583e-01
      -1.3150792030016970e-01 -7.9058444119139842e-02
      -4.5891917318336428e-01 -3.7998403666424441e-01
      -1.1143992890614934e-02 2.1462604199867397e-01
      -3.5026741321094157e-01 -7.6425272424537519e-02
      -1.2226958466523689e-01 5.5015074883740890e-02
      3.4695416719210143e-01 -1.4018254513534625e-01
      -4.3507087460302768e-01 -5.6977430851025704e-02
      -8.1127060435860243e-01 3.0089582106474059e-02
      4.8888736857331766e-01 -3.0219804833741915e-01
      -3.1893371932050787e-02 3.4760666827325565e-01
      -2.0979718367473515e-01 -1.3587375627950718e-01
      2.0228712661975173e-01 2.3434371652876076e-01
      -2.3626479928110619e-01 1.5152081476460849e-01
      3.1764366026284024e-01 1.5798493059923557e-01
      -2.2885827497463956e-01 -3.2250737691547782e-01
      -2.0900952831301209e-01 -3.5248196318705682e-01
      -2.0063214585003747e-01 -1.7041975201118446e-02
      2.5906227224658032e-02 -7.2642066605680636e-02
      -1.6989274803591872e-01 -2.2496603242692223e-01
      -1.5302613477117027e-01 -2.3526216297904337e-01
      2.1126691736427838e-02 1.7201132183858192e-01
      -1.7661543349365796e-01 -1.7557574972889856e-01
      -3.6080371020507185e-01 -9.9409855558371660e-02
      1.4418392654137652e-01 -1.9363819527172810e-01
      1.9134999882907133e-02 4.1728689994175927e-01
      -2.7379808411208992e-02 -1.1766910892042584e-01
      -1.6271842743455231e-01 2.6765833252623478e-01
      -3.0807961613108714e-01 6.8146902009556184e-02
      2.7444913929432008e-01 1.7369174229562373e-01
      -3.4755022949760789e-01 2.5326311267528645e-01
      -6.9013675093848717e-02 8.7170271021938962e-03
      -2.2621596262645757e-02 2.5813191269117675e-01
      -7.1165211337982981e-02 -1.0015978657475470e-01
      -1.8960530487088922e-01 -2.2435357572038861e-01
      -7.8598607937164028e-02 -1.3719715220265638e-01
      3.1165233912855517e-03 2.1409735848075076e-01
      -2.2004422020851497e-01 -2.0478191399659165e-01
      -3.8117113693145172e-01 -8.6939307674632940e-02
      2.0463389215199401e-01 -2.3808020476498210e-01
      -2.8953903590038004e-02 4.1871823293489630e-01
      -1.7300516156384772e-02 -2.4088958644903224e-01
      -1.5316625868266714e-01 2.5400021845411114e-01
      -2.9307572428225909e-01 6.9109114395651261e-02
      1.2896277127048239e-01 1.2675822243608617e-01
      -3.3269216800015911e-01 2.3174069405345202e-01
      -2.4494646732987950e-02 2.2911303040118024e-02
      -3.0431349717072453e-01 3.2506042401393132e-01
      -1.1403011102063736e-01 -2.1217704742751675e-01
      -1.4057826458651346e-01 -2.4400040191654701e-01
      -5.3322977014762019e-02 -1.8041404339172631e-02
      -3.3032397836785465e-02 2.2739384972914631e-01
      -2.0277019494781401e-01 -1.1032059168880626e-01
      -1.4220269506703825e-01 -3.2692421208590068e-02
      -7.1117806582912127e-02 3.8061717850250247e-02
      2.3264306862422483e-02 3.7683077110426433e-01
      1.0730431526737427e-01 -3.0713550563677072e-01
      -1.4372973371039044e-01 2.5865271169904314e-01
      -2.4810263639746219e-01 -4.4469892229661613e-02
      3.2711694794238966e-02 1.2939968593509887e-01
      -2.8848014211144879e-01 7.7467557996843073e-02
      5.4724449933258937e-03 3.1357594192443650e-01
      -1.6214355195772123e-01 1.9928700320723683e-01
      -1.9255102800313055e-02 2.2361159719912788e-01
      8.4597773711666335e-01 -8.5293210560330346e-02
      2.4990596949709798e-01 4.3433133689788023e-01
      5.3189780458730651e-01 1.0531230407642046e-01
      -1.2163262355144801e-01 -2.0514869746594278e-02
      5.1594831570459722e-02 5.3427702363931066e-02
      -1.3317219011929390e-01 3.3920141891733702e-02
      1.7460118754507706e-01 7.2485344757868789e-02
      -6.2193557023674170e-03 2.0835088950843139e-01
      -3.5891601014072200e-01 -1.4892028429278559e-01
      1.2025038380232946e-01 -1.6157925215909813e-01
      -1.5532567435915229e-01 -2.4777050191194241e-01
      -1.1670996313893128e-01 -3.4317631931743600e-02
      3.3207337605323017e-01 6.3534200846783837e-02
      -2.4924614049119076e-01 -1.0516803719322772e-01
      -5.1016564744252771e-02 6.0360879702818808e-03
      3.1870411093786838e-01 1.4776576238834885e-01
      2.0969781185510439e-01 -5.9680162831442195e-02
      -2.7614901352615521e-02 -3.8803086910746143e-01
      -2.3873093437775991e-01 4.0953846379453401e-01
      1.4493594171645124e-01 1.5726028270180761e-01
      -3.4313475970384699e-02 -8.6329971609423864e-02
      2.8302039512912408e-01 1.7399504088804779e-01
      -2.0938367627707716e-01 4.4653935581622373e-01
      2.4420503823467798e-01 -3.7657292112945312e-01
      4.1694832157360207e-01 1.0213162336155160e-01
      -2.8783400228551531e-01 -5.9467409278942014e-02
      2.2118156692161667e-01 5.4898040204059945e-02
      2.9426841245294089e-01 -1.1930316586514271e-01
      3.1138467077428050e-01 2.8525657863588699e-01
      2.4083659599846690e-02 2.7569835254080674e-02
      3.3548379596263117e-01 4.2180618830560607e-01
      2.5698287569922784e-01 -3.1158518016888248e-01
      8.8224964636971645e-02 -1.0951719842947012e-01
      5.8293348074766549e-02 5.1920271801324247e-01
      3.5367812492761791e-01 7.5421359068248789e-02
      -2.5923536733002484e-01 -8.8883433258755057e-02
      -4.8502545000743786e-03 8.9999504949759446e-02
      -8.7202125832519517e-02 3.6810877293624661e-01
      1.8534774732476980e-01 -3.1519074063750996e-01
      5.6634701943124943e-01 1.1400243894361657e-01
      1.9475463533508125e-01 -9.8659142134627315e-02
      4.3234686342797829e-01 5.2497499873538592e-02
      5.8664852887755625e-01 -1.8520678122465931e-01
      4.0177115729429530e-02 -3.2203588401903967e-02
      1.3388771224702006e-01 2.2558172051858011e-01
      2.4364698222437695e-01 2.1867002316091808e-01
      1.8513039490919242e-01 3.8971627897698058e-01
      1.8257911918750053e-01 -2.4662913504622413e-01
      -5.8782546065753595e-02 1.2697008854464131e-01
      2.7850480119365395e-01 2.7849900796902843e-02
      -2.3538607830004665e-01 -5.2989037753020829e-01
      8.8206987400716683e-02 4.4227196779897060e-01
      -2.6391256174824490e-01 7.7631809892617490e-02
      3.3841640906126583e-02 -1.8004247786170322e-01
      3.8614689889798981e-01 -3.6459023302798954e-01
      2.4334106374408787e-01 -7.6892050593953890e-03
      2.5939528540237305e-01 -1.6140313561058375e-01
      2.9390474132382971e-01 -3.2906759561836563e-01
      -1.2613829401897747e-01 5.1982190003020623e-01
      -5.4418053880155217e-03 -2.7203559388759713e-01
      -1.5818953399639432e-01 -3.0319956139775683e-01
      -4.1487875543472136e-01 3.5419787265929914e-01
      -2.9078408567024672e-01 -1.1068715037175374e-01
      2.1561524069523282e-02 2.4629100298818979e-01
      3.2630945739431760e-01 -1.6374433721871934e-01
      -2.3605886064948961e-01 -2.0304098719367719e-01
      -6.8416927323674701e-02 3.8153368410793959e-01
      -2.6453137246676550e-01 -1.2830340503639984e-01
      3.2189518685104379e-01 2.6268676082147363e-01
      -2.2385928909158154e-01 1.8764424801932042e-01
      3.2599070935737801e-01 2.7671645257567867e-01
      4.5247169037550612e-02 -8.3386711161805432e-02
      -2.2348806905324881e-01 1.2169900594141286e-01
      -4.7002543132018737e-01 4.3104761143585668e-01
      4.4512260968258349e-01 4.6734996680688989e-01
      1.9786033583270507e-01 3.6532791547519411e-01
      5.6446587028050332e-01 -1.4440962484659444e-03
      5.8354504376260796e-01 -3.5839410414677275e-01
      5.2890110670535639e-01 -4.9655540464830789e-01
      -1.6310971477872280e-01 4.1500826025739235e-01
      2.8769307508050490e-01 -1.5427006972357238e-01
      4.0506181876680158e-01 -3.6038568363577345e-01
      4.4285412855485312e-01 -5.0128316121754513e-01
      -4.8264074017588415e-01 -3.4843842726592816e-01
      5.7577929999661115e-01 2.1583489044447182e-01
      3.7110726061032294e-02 -4.3569673784205620e-01
      5.0872383128781173e-01 1.9497248117549690e-01
      4.7117945046056381e-01 1.7869100277511465e-01
      2.5688843114032367e-01 -4.1517078483837638e-01
      2.8943885359584409e-01 1.7400475173723881e-01
      1.6914434194645195e-01 1.1906180759565052e-01
      3.9234595186176058e-01 8.5313757173647406e-02
      4.3584849520975855e-01 -5.0612206694992057e-01
      4.0120996784921598e-01 -5.8509730929006125e-02
      -6.1438076190078728e-01 3.2618303522202130e-01
      1.8309528494561192e-01 -2.5119642632728700e-01
      4.4334405864180015e-01 -3.0510420050721443e-01
      5.4991612227376951e-01 -4.1711011223326711e-01
      -6.1926779388869879e-01 -4.3990145882740217e-01
      4.3029176746828102e-01 5.5059953397423234e-01
      -1.7456461782139215e-01 -3.6657631793333373e-01
      3.2819714587096943e-01 2.2036845961075427e-01
      1.1685014434200269e-01 3.2676811892208918e-01
      -5.1293073098370549e-02 1.3045144059431366e-01
      2.7380150927089880e-01 1.3391271906507515e-01
      1.3269735191233217e-01 5.1130615980614136e-02
      3.7123569220962532e-01 -2.8900208080474171e-01
      7.6650924798799425e-01 -3.9110714959671622e-01
      3.6828349373634794e-01 -4.1546494037889165e-01
      -3.1957479228687441e-01 2.4776171784885379e-01
      1.0987393131500597e-01 -1.3682064458137655e-01
      5.1166574423848132e-01 -3.2245196555825012e-01
      4.1869559066527351e-01 -6.4977680875017674e-01
      -5.9879097474482545e-01 -1.4556935578627589e-01
      2.2109970725557157e-01 2.2925243313838750e-01
      -2.0026511132326510e-01 -4.3660260381221427e-01
      2.4375238121464610e-01 2.1567406968854938e-01
      1.6931319249652568e-01 2.8103265458493470e-01
      -7.3977942587544157e-02 -2.9503357782398232e-01
      2.1065549322062244e-01 3.3921889185323163e-02
      7.3727252107600574e-02 8.0622210475829459e-02
      -2.2237267098730459e-01 -2.9553789724679125e-01
      3.9116150047515008e-01 1.1599813900247161e-01
      1.3967540533126313e-01 -4.6028074799496721e-02
      -2.4974642426546557e-02 -1.1423953112259300e-01
      -3.6710798772900455e-02 3.8410825383991937e-01
      2.3664574263645297e-01 -5.3063873650270106e-02
      -3.8918444034846532e-02 -2.4009061040321347e-01
      -2.8205719887604946e-01 -1.4773159389818041e-01
      3.2947778496602625e-01 2.7475339410725058e-01
      1.1901784164511636e-02 -1.7480211163047796e-02
      1.5555375611218950e-01 1.7117269336278687e-01
      3.1163393163942144e-01 8.1266284049476403e-02
      3.0340041083846536e-01 -3.3874442447635661e-01
      1.6921437533100309e-01 1.2556769044835610e-02
      3.8637544693004977e-01 3.5346532899749400e-02
      1.8289213690440548e-01 -1.3175893457670618e-01
      3.5575537043181110e-01 -1.4114159159619291e-01
      -3.0266499252794071e-01 5.5318459471384573e-01
      -3.4963305458484650e-01 -1.4032855894367996e-01
      5.1270403200468806e-01 1.2011929419516069e-01
      -2.9132046861942984e-02 -1.2556828699108613e-01
      -2.3832997934949746e-01 1.4160718583273202e-01
      -8.4661473553757347e-02 -6.4017184105734148e-01
      7.8663467499880091e-01 1.7591281630321640e-01
      -1.7656766392161147e-01 -2.1225698166736733e-02
      3.5565864116485674e-01 1.1828267797997000e-01
      4.8073629987795186e-01 3.1101203080203543e-01
      -5.2245683299925412e-02 -3.0082085425407157e-01
      1.3705193733857399e-01 1.1541418967689666e-01
      5.2955804385766414e-01 3.1066303605176870e-01
      1.2616888173412061e-01 3.5230305170661802e-01
      1.5484728042357168e-01 4.4867303612714328e-02
      -1.1504102778250815e-01 -4.2735744729146964e-02
      3.1177770253485036e-02 7.0835538910922679e-03
      -3.8035211429748160e-02 -8.5983109248603751e-02
      -1.6455867093208165e-01 1.4437003991405575e-01
      -1.8068033153314886e-01 -5.6235223421618685e-02
      2.8849493512768659e-01 -3.9004547029708792e-01
      6.1667817450076490e-01 2.0266183184804318e-01
      1.3195154817813634e-01 -5.2333384964297798e-02
      1.0847018990171643e-01 -9.5688132344062996e-02
      6.3631073847497877e-01 5.5704500253487485e-02
      4.1246298977383505e-01 -1.9458232522855021e-01
      -1.0309070139185399e-01 -1.0770984260967711e-01
      -2.4696547763526036e-01 -8.4837500632492235e-02
      -2.1799055654029423e-01 1.6496222685238685e-01
      1.1665302268814602e-01 3.4514546969853677e-01
      -1.1108914631877824e-01 -1.7537822797006730e-01
      -4.6312370103161599e-01 -7.5702024525137884e-02
      -2.6216003769048445e-02 -1.4559568839736511e-02
      -3.2194937352974012e-01 7.6996688587638473e-02
      2.3340776420710052e-03 -6.1271407101515879e-02
      1.8749339455776784e-01 1.6524495615309898e-01
      -1.5436087459297124e-01 8.3637388098920032e-02
      2.2848668417910928e-01 2.1077559294718556e-01
      -4.2853824241185867e-01 -2.4352373435015537e-01
      3.7194595113659225e-02 -4.6436503706598638e-02
      -3.0340492388163023e-02 1.2200559521584269e-01
      -6.3683617099543427e-02 -2.5796029344771217e-02
      -2.2431941456153068e-01 -1.6597557040085045e-01
      -2.1073637593157449e-01 2.9215347731839197e-01
      1.8010424493362201e-01 8.9739463392003366e-02
      -2.9171520148837961e-03 -4.1168882656687378e-01
      -2.5063073839085831e-01 -1.5203495174970366e-01
      8.9550355196072559e-02 -1.8542351943483618e-01
      -2.6665640027470594e-01 4.3000883508594545e-02
      8.6864464704593039e-02 -1.3940061534850162e-01
      -1.3940458151348088e-02 2.7981744534975267e-01
      -3.7997588767115331e-01 1.7577086999501393e-01
      9.3641164798360599e-02 2.2575743094572961e-01
      -3.7379796273306698e-01 -7.1229692657247155e-03
      -1.5726720698560176e-01 1.5310383562235639e-02
      -1.3965300355344318e-01 3.4878332758058050e-01
      -6.2400306567158677e-02 -1.1036789816536853e-01
      -1.5307078358259826e-01 -2.0966645084178023e-01
      -1.7864450966734249e-01 1.2982075772626206e-01
      7.6964287674595143e-03 1.4170460396067547e-01
      5.9092411684413669e-02 -5.0113844358576420e-01
      -3.7677264123922305e-01 -1.6828563377093028e-01
      1.0065771740154224e-01 -2.3596853099806145e-01
      -2.7416030203829361e-01 1.0660981635132580e-02
      1.3826593855541722e-01 -1.0715694193688084e-01
      -1.1313647405044959e-01 1.7104709034244078e-01
      -2.7587914208683301e-01 1.9297422709143755e-01
      4.1845406162827212e-02 2.0438606323880429e-01
      -2.7752859187932805e-01 2.1432649925406244e-01
      -1.6283555417760323e-01 3.2722692085570305e-02
      -1.4403331126714813e-01 3.9079417998287924e-01
      -1.1069618610455227e-01 -1.2423563680029549e-01
      -1.2403371496033670e-01 -1.9838098494467649e-01
      -2.5659748467508664e-01 7.5619782420189380e-02
      6.4198633959577450e-02 1.7629675978581738e-01
      2.0881637285400760e-02 -1.9256068283310221e-01
      -2.5749585399804509e-01 -1.8166412609077856e-01
      -1.2773187583240941e-01 -8.7771902066618862e-02
      -1.8103085948136860e-01 -1.3628086238724819e-02
      1.4458901385585771e-01 5.9825513463946940e-02
      7.2746447787868623e-02 1.0936983174621775e-01
      -1.2553098572754243e-01 1.0506056157655998e-01
      9.1998113335186857e-02 2.3732687524717008e-01
      -3.5158170252637627e-01 -2.1497524442985281e-02
      -2.7206208178046604e-01 1.2694237067604205e-01
      1.0919730996476745e-01 3.5021873698973421e-01
      3.3569613743706385e-03 8.1829572977338852e-02
      8.3436187861576883e-01 2.5301273312586453e-01
      -4.8233871139331440e-02 2.0804278308577215e-01
      1.0563446737682841e-01 1.1817721740202887e-01
      2.2317487555476700e-01 -2.9752598725081240e-02
      5.8319450042225407e-01 1.9114899152058218e-02
      -1.5036946189001102e-01 1.1032484267202536e-01
      -3.8492257713284912e-02 -2.6949090641077866e-01
      1.3287421868990665e-01 3.3150584275176687e-01
      -1.2959152184447906e-01 -1.6126809911994566e-01
      3.4878294727560877e-01 2.3975437720431034e-01
      -6.5421313417175275e-02 1.0306645671956205e-01
      1.5657720908772788e-01 -7.8350969284058884e-03
      1.6448403981446155e-01 -1.0009429423155733e-01
      3.4057066179524892e-01 2.6142727460241200e-01
      -9.6042324987382008e-02 -9.6144968379713286e-02
      2.2209228726111679e-01 2.3228093028708249e-02
      -1.7401342021198857e-01 2.4799240494032443e-01
      -3.7109364281236834e-01 6.3565603992343817e-02
      3.2322611381991620e-02 1.5185117157895789e-01
      4.2299012375630796e-01 -5.1221206695429407e-02
      -1.7079645055668807e-01 7.5491709882685373e-02
      -1.8603459192682514e-01 -1.4373740352710215e-01
      -6.9096318442086774e-02 6.7549941926100221e-01
      3.5135964197339042e-01 -2.6309011647642933e-01
      2.9598236276840645e-01 3.9709512154554938e-01
      -1.2625574647918408e-01 3.3682811240550797e-01
      3.1606984127987414e-01 1.2343203283303006e-01
      1.2301470132056985e-01 -1.4007391265291630e-01
      1.2516239555904057e-01 6.1399319844725253e-01
      -6.8275547913842341e-02 3.1245230847157219e-04
      2.5692964153863901e-01 5.0277946285045971e-01
      -1.1350544349876725e-01 -2.8379375742246354e-01
      2.0514937994519913e-01 -2.7045092362594364e-02
      -5.4780679018039652e-02 3.2589053579492799e-01
      4.1538390372252754e-01 -8.9942741294410600e-02
      -1.6713046919334495e-01 -6.5850483314382077e-02
      9.8487228158000414e-02 2.5903801921298808e-01
      -3.0588946155839625e-01 2.7975291566136473e-01
      3.0630444017610042e-01 -1.2453602965886224e-01
      3.8691399440053331e-01 6.5899556745243182e-01
      -3.2481888533937922e-02 8.6606115696507793e-02
      3.8861902472960280e-01 1.2841224443421639e-01
      3.6702674631633492e-01 -2.9549385242522732e-02
      2.3605212599330119e-01 8.2189766440275855e-02
      7.3737185500054703e-02 -7.1910379374883107e-02
      1.5913347944250664e-01 2.6690507434381933e-01
      2.5146833509240618e-01 1.6956850754219321e-01
      2.8691798323717621e-01 -1.6919186488923416e-01
      -1.9692444254611291e-01 1.1741936492723783e-01
      4.3211304337855541e-02 1.3345331634353402e-01
      2.3252915657419902e-02 -4.4646650855153902e-01
      4.8197644279730466e-02 3.7409093551517369e-01
      -1.9667106550976229e-01 -2.0340420556551474e-03
      1.5887017717426999e-01 -4.6693983405710106e-02
      1.6170012321454638e-01 1.2668411576135219e-01
      2.3881515282572853e-02 -9.6234042440345668e-02
      2.9815951292238002e-01 -2.7823275491151023e-01
      -1.7423620467713905e-03 -8.1688330061606709e-02
      -1.5903090960379548e-01 4.6769851368905407e-01
      7.5783923044556820e-02 -3.9737737068960882e-01
      -7.8491082423201339e-02 2.7923198719766384e-01
      -8.4716535806801010e-02 -2.9141102998991288e-02
      -3.2498466034196888e-01 -1.6592076087411789e-01
      1.2823912830098230e-01 3.5588258942636092e-01
      -1.0274417711266254e-01 2.7993958237942297e-02
      -1.9028201216321783e-01 -3.2269772795281620e-01
      1.5555530356989516e-02 2.1910033925058894e-01
      3.5803261911280464e-02 -4.0941843292365124e-02
      4.2554895024524375e-01 -1.9213531722203528e-01
      1.3876870396572238e-01 6.0644522409990953e-01
      3.0497332188406134e-01 1.7062101767429450e-01
      2.1427350848120932e-01 -1.0236453083296619e-01
      -1.4077319727443816e-01 1.8224829717708477e-02
      -2.6350721746891420e-01 1.0902980836759041e-01
      2.7823712471033168e-01 3.9634954440773729e-01
      1.7885467176298128e-01 2.6121962487040190e-01
      5.0959433895046369e-01 -6.7911551072776549e-02
      6.2407731005018108e-01 -4.5184355623139105e-01
      3.2970776388167594e-01 -4.2769447810889816e-01
      -4.2878525337102352e-01 3.8006613439234771e-01
      2.2848707430614712e-01 -1.8623276892971569e-01
      3.2826487565660739e-01 -4.2277578741170391e-01
      4.2640497382748854e-01 -4.4876579217988183e-01
      -4.0300908764272469e-01 -2.2052230305546475e-01
      4.4423501451104036e-01 7.3054998595019738e-02
      -1.0782505993644223e-01 -4.9024978060311664e-01
      3.8285526022234595e-01 1.5021753736628847e-02
      3.2461101537208747e-01 1.6270260451803223e-01
      1.2879275446080582e-01 -3.8163142323116545e-01
      2.9816538802206938e-01 2.2701230155159519e-01
      1.4711564285460410e-01 1.5791162054632799e-01
      3.8467915876135816e-01 7.5901204187988444e-02
      4.1892872882263338e-01 -5.0375361699576460e-01
      2.8012633213032945e-01 -2.3712036050748378e-01
      -8.1440101908335050e-01 3.1643623695316819e-01
      1.5419946457455899e-01 -2.6763488149489584e-01
      5.2440344503565139e-01 -3.3871951956887952e-01
      5.2637357446989452e-01 -5.6136163427070784e-01
      -6.0610781471720232e-01 -1.5936989324996076e-01
      2.2273379280204839e-01 1.5910681872501811e-01
      -2.5376458351210301e-01 -4.3848761138187381e-01
      1.6152343025449781e-01 7.2126268443626781e-02
      6.2744663917115182e-02 2.5929184122599425e-01
      -3.3781467977792773e-02 -4.2214437114382214e-01
      2.8706073398051429e-01 2.2966374514773091e-01
      1.4576176767764720e-01 1.3739887137300832e-01
      3.2619335689022266e-01 -9.4663884569136020e-02
      5.3730379797002759e-01 -4.1983821708160424e-01
      2.8939803195974956e-01 -1.6054815899200550e-01
      -4.5507710398073309e-01 2.4462690598672746e-01
      1.1710584087443600e-01 -3.8734609323053554e-01
      5.2184144828618717e-01 -4.1549470019581031e-01
      4.3752713530180165e-01 -7.7515818637884792e-01
      -3.9528828460721244e-01 -2.1153994701395037e-01
      2.6111060271418773e-01 2.5209805295325688e-01
      -9.9180044312655036e-02 -3.6478888343748267e-01
      3.4998426428760665e-01 6.5345971302059963e-02
      2.0317985737417490e-01 3.1508719560404508e-01
      1.5208429875112822e-01 -3.7023777751948911e-01
      4.9876117511150064e-02 -1.7046874161197095e-03
      -4.5493639741369091e-01 -9.8642698217475830e-02
      -4.9309488719730743e-01 -3.3160973866264787e-01
      2.4200450862691811e-01 3.5062916999020455e-01
      2.7456326981846402e-01 -2.5777405746360277e-01
      -4.8609188501043517e-02 -2.5360353650910522e-01
      -8.5413205411482188e-02 5.4935011645036103e-01
      -2.9167958192246352e-01 -5.7906478935588507e-02
      -6.2629316144512615e-02 -2.1844710695600572e-01
      -2.5206855622314667e-01 2.0968683058086726e-01
      -3.2759763615092763e-01 5.7503771944371895e-02
      3.4771064019974807e-01 1.6486899324968163e-01
      -1.6684898055592690e-01 1.5287825097076627e-01
      -1.4832357338361976e-01 1.5630158528363006e-01
      1.1096568424059977e-01 -2.2424648432426661e-01
      2.1371245015543436e-01 1.8768550883511384e-01
      1.3867918697915110e-01 -6.2463461882045920e-02
      6.0681794270690557e-02 1.9596336346896950e-01
      3.0455293485828999e-04 6.3198714149700366e-02
      7.6620088224103253e-02 6.9420376705917677e-02
      5.8173132669315862e-02 3.9989728236767531e-02
      1.4839536189282357e-01 1.9536382448799058e-01
      -2.0159713396948847e-01 2.0965372642985144e-02
      9.5780658819926007e-02 -3.5694153769332021e-01
      -1.2759276785492743e-01 -2.1877383992632876e-01
      4.7648511793962944e-01 3.6349559640199691e-01
      1.1850089019199794e-01 1.4702975596653101e-01
      3.9083415677461858e-01 2.3289947090287635e-01
      3.6315064032824901e-01 3.0347392779872973e-02
      6.0752430828249257e-02 -1.3249598721292899e-01
      7.5458283475126967e-02 1.4733735831701933e-01
      2.2516904876393506e-01 2.4562247248387653e-01
      6.5730004387219163e-03 1.2944242083140180e-02
      1.3316212961868173e-01 2.1339841016281183e-01
      -7.4015372732777751e-02 2.6257969328522790e-01
      3.5240270241022296e-02 -1.8822264801140243e-02
      -3.8789099847181388e-02 -2.4402993776232873e-01
      -1.6739951212815621e-01 3.5009966325044591e-03
      -8.4176584858953324e-02 2.1134379144950344e-04
      1.7237642334579534e-01 -3.2859821423886232e-01
      4.6675363712264006e-01 2.1061863598930355e-01
      -1.4538154448590151e-01 6.3691499592659934e-02
      4.5019272398725718e-02 -2.5290011956302960e-01
      4.0663312748538066e-01 -2.5821837007189424e-01
      5.0338801739889638e-01 4.3583504580281783e-02
      4.8450529485114809e-02 -4.8787157187616267e-02
      -8.8592059915527550e-03 -4.6240134259906092e-02
      -3.0930415262535477e-01 2.0532863006999486e-01
      -4.8015448784492293e-02 3.9590041233972051e-01
      -1.8183245915264670e-01 2.0143693953366401e-01
      -2.5212130760092460e-01 -2.5912013193388256e-01
      -1.6239743643452881e-01 -1.6351159590782777e-02
      -3.9621461834852501e-01 4.1301188607781661e-02
      -4.0991871451588190e-02 -2.8344258852391935e-01
      1.1316275859251909e-01 1.2318954814369883e-01
      -1.3386820064651178e-01 1.5537984129444365e-01
      4.9474784537207335e-02 1.3635686120667123e-01
      -4.3294520462789671e-01 -3.2206770937382462e-01
      -8.7200202105932351e-02 2.1960859957199253e-02
      3.1937417292547288e-01 6.2190612649382998e-02
      -1.0011137036256547e-01 -7.3714259264440691e-03
      -1.7389185399056029e-01 -6.5074162098545760e-02
      -2.1110257851180861e-01 6.4934509358129569e-02
      3.0683179988298465e-01 2.8106085040986173e-01
      -1.1143842338606659e-01 -1.5450285494370350e-01
      -4.3039165862091189e-01 -1.3470110840707630e-01
      1.8149755302248282e-02 2.3065071250153613e-01
      -3.5472281522717036e-01 6.9840960678180408e-02
      1.1935182618588290e-01 -2.1807346581128911e-02
      1.8302120626199878e-02 2.1448527293630124e-01
      -2.5399477281387361e-01 4.1433163064495393e-01
      -8.4073424964323629e-02 6.6099416352857709e-02
      -5.1307977520465331e-01 -3.1488952870385067e-01
      -2.6406044957277092e-01 -1.9405272616969424e-01
      -9.0813926152532073e-02 -3.0260231344786648e-01
      -1.1614389434097927e-01 1.0757840378946691e-02
      -1.7701117967435692e-01 -1.1381607021159045e-02
      -2.2177083467121422e-01 -2.3930670575485211e-01
      3.2156987718785834e-01 3.9457857296671522e-01
      -1.2188402121090529e-01 -2.2047482171423846e-01
      -1.5131403595156701e-01 -1.2223565952270343e-01
      -9.3207233900829245e-02 4.0316003288564783e-01
      -3.1918165232197743e-01 9.2193605228411177e-02
      1.3280999318031858e-01 3.3070468188359314e-01
      -6.1889752794426156e-02 3.1044338820015516e-01
      -2.8943676483037722e-01 5.0651493167827222e-01
      7.1350840802382631e-02 6.9263167233551193e-02
      -5.7071836564050149e-01 -1.5694800966234707e-01
      -4.1154201587164635e-01 -8.3994784297239028e-02
      -3.9424333782066660e-02 -1.0130163706806597e-01
      8.2455201839595038e-02 3.7192123283984635e-02
      3.0735102781152529e-01 1.8761138529322713e-01
      5.4674345912037098e-02 9.4419325419169420e-02
      1.3954086430294374e-01 3.4607838370629007e-01
      -7.4213173254866607e-02 3.9476442695532729e-02
      -1.0678346088747798e-01 2.8006120752440699e-02
      -1.2357246720420921e-01 -1.9517933688003555e-01
      -1.0115680879049588e-01 -3.5572861103657281e-02
      -4.0639120369090960e-02 9.3554089184390551e-02
      9.3680427751827000e-02 -1.4306598372462714e-01
      3.8673882353925432e-01 3.4502252210235856e-01
      -2.0103155723061550e-01 -7.1057064280395221e-03
      -3.3730175319420491e-02 -1.1851997230367176e-01
      1.3578782159507299e-01 -2.0852200818897240e-01
      5.6320063355949979e-01 -7.1002741523555610e-02
      -5.1145331231825249e-02 7.7266420489018023e-02
      6.8715458035853871e-01 2.5790526253991825e-01
      -1.0724787273377977e-01 2.8182545511869511e-01
      1.0405976848393671e-01 6.0621404576590276e-01
      -3.0269480001177693e-03 3.6029237365668509e-01
      3.6187961320433781e-01 -6.4390327284814851e-04
      -1.6465404775126999e-01 4.2132151617571015e-02
      -1.2135079793202627e-01 -1.8553751834209006e-01
      -6.3835144836663568e-03 5.0929441390599683e-01
      -4.9944693435543724e-02 -3.5075805793491777e-01
      3.7399882390643480e-01 2.6060103733684137e-01
      -2.2686855005391782e-01 1.0636705985293050e-01
      3.5946794797785059e-01 -2.1698971852673724e-01
      1.3978628324048240e-01 -1.9330560083902354e-01
      2.8059130317557807e-01 5.4186644204984635e-01
      -9.8463940279350348e-02 -1.3707681140180522e-01
      2.1276023072468869e-01 5.2464791163026839e-02
      -1.7099172404547491e-01 2.4306281910373265e-01
      -5.0501768540454850e-01 3.0114673286989924e-01
      -5.5532937114386380e-02 2.9947072902207622e-01
      1.1781609938518720e-02 -6.9928116489788000e-02
      -1.4283800297221697e-01 7.0297415021179754e-02
      -3.1349825924567487e-01 -1.0003881616698655e-01
      -7.5659134126030758e-02 5.4445761719551344e-01
      3.3769480323538953e-01 -3.3214612498295709e-01
      2.6138198432788612e-01 2.6128921396579941e-01
      -3.4303681427212623e-01 3.0794977915341454e-01
      3.1622176842794975e-01 3.2963507995720262e-03
      1.9152864221114635e-01 -1.2388392964688495e-01
      1.2395910833693209e-01 2.7357913683218399e-01
      -1.8325545845853614e-01 -1.2526538175001126e-01
      -3.4755410458449792e-02 3.8081672652370127e-02
      -3.3469109652150303e-01 -5.5842616359409507e-02
      -5.9643543313251043e-03 5.2970390580116600e-01
      1.8921830239402537e-02 2.1398613375261133e-01
      2.6123120730482247e-01 -1.6793344568054630e-01
      -1.2731960683778190e-01 -6.4683305402444763e-03
      -1.4045712350841474e-01 -4.3040998647023744e-02
      -1.4405538315330710e-01 4.3620665830328897e-01
      3.2592652556255847e-01 7.3201198732577938e-02
      6.3581880235290267e-02 1.1638467708098117e-01
      -2.6217166704302453e-02 1.9531175327418232e-01
      1.2183065112322837e-01 -1.3083322384657906e-01
      1.2419857480231335e-01 -2.0812340183030836e-01
      -2.1900138390534063e-01 -3.6968769262923848e-03
      2.2358975998629116e-01 -1.3012556497481970e-01
      2.9220586402934767e-01 3.0464948564848887e-01
      2.7042633263790494e-01 2.7583482527402917e-03
      1.2949054438933741e-01 -2.0819888505769704e-01
      -6.6202619923530243e-02 3.9217181422787864e-02
      -4.7158493736724244e-01 1.8063427024429854e-01
      -3.8797364086931692e-02 -6.9263988143416277e-01
      1.8542259533169503e-01 -2.5079059245302491e-02
      1.4072367271609884e-01 -3.3826233884209617e-01
      4.6842850432259819e-01 -1.0983520541059201e-01
      2.0851180096514921e-01 4.0759122807599091e-01
      -8.1360079936781099e-02 -8.8776788829271480e-02
      2.6983397085947397e-01 -1.0750865070481379e-01
      5.8252535055651145e-02 -3.9002605602039289e-02
      -1.9565280735341462e-01 -5.0282429592423139e-01
      2.0953689744689713e-01 -9.9826335190058388e-02
      3.5871611419418581e-01 2.5798833868310633e-01
      3.5658499833756063e-01 5.8332580633087328e-02
      -1.2627850846326708e-01 -6.6067406649554206e-01
      2.2292248469469502e-02 -3.4862022283619239e-02
      -1.7597961903730935e-01 1.6878345999213346e-01
      8.3835523005041157e-02 -3.2144800201636953e-01
      1.5735916533572269e-01 6.1508441470986532e-02
      1.2773744325309525e-01 -3.4568342063443414e-01
      2.8825515223617609e-01 -1.3685827852029989e-01
      2.9840012352229445e-01 1.9877907646358992e-01
      -1.1444449314579612e-01 -1.7651650739741317e-01
      2.6156713133086446e-02 1.5505268484184820e-01
      5.2429381574042352e-02 2.3828895715637641e-01
      8.2703284635988403e-02 -2.4779866999587530e-01
      2.9977335338398348e-01 4.0698605047398995e-01
      1.7742749357787732e-01 2.6342810439284425e-01
      4.1034167497648966e-01 6.8566174437598840e-02
      5.4272096532365277e-01 -3.4063255816508187e-01
      4.3455423230686085e-01 -3.1451231770455479e-01
      -1.5622378217012584e-01 3.3463221934485771e-01
      2.3006373901222013e-01 -1.9608318209001574e-01
      4.4979900168320641e-01 -4.6040144675398875e-01
      4.5919299788290019e-01 -4.1612054377961349e-01
      -4.8262563232970734e-01 -2.9360586650901910e-01
      4.7478814534370817e-01 5.6840141091491811e-02
      -7.3661472491557037e-02 -4.4803376144126633e-01
      4.6146117454607211e-01 1.6423688452844909e-01
      3.6437530257341560e-01 2.4831221343154836e-01
      -4.9321983723267196e-02 -2.2210237779940201e-01
      2.1560922663532958e-01 2.8592059761925703e-01
      2.1494395014131468e-01 1.6025878854234565e-01
      3.3687876936647027e-01 1.5570774496004119e-01
      2.5852026568294983e-01 -5.0118167014193837e-01
      5.8511808572223434e-01 -5.4517810484697860e-01
      -1.6298213242339110e-01 2.5822542947358579e-01
      1.7744267749210024e-01 -1.2502186613199540e-01
      2.4505654413704767e-01 -4.5212713341711186e-01
      5.5927455864702047e-01 -4.6615922745348237e-01
      -6.0615136499898958e-01 -3.1895672352108551e-01
      3.7892211014920157e-01 -2.8541548874193523e-02
      -3.8866359863817791e-02 -4.3905199395835026e-01
      2.6423392581642074e-01 2.6559167309411880e-01
      2.2844350657409684e-01 5.1028401853208016e-01
      -2.1679250160879907e-02 -4.2907932468426729e-01
      1.8496713895041253e-01 2.2092354614784451e-01
      6.7715260550079634e-02 1.1244386297467798e-01
      3.1976438614684149e-01 1.3851969816080462e-01
      5.5090465261179811e-01 -3.9551136027118133e-01
      5.6603062898295187e-01 -4.1755846669642055e-01
      2.9009485744449334e-02 2.2764708897302602e-01
      1.4738765356177574e-01 -3.0792320256993333e-01
      2.5479569347090503e-01 -4.9449025260908969e-01
      3.9595460692910328e-01 -6.9651482227943085e-01
      -4.3489641395416451e-01 -2.6272628817752935e-01
      3.3835190739627391e-01 7.2731141882979772e-02
      1.3605416282438476e-01 -3.9607537938526144e-01
      3.9566554394680020e-01 2.0789548851055134e-01
      2.2906286771789716e-01 3.1183105392115901e-01
      1.1045207855112285e-01 -2.5889297007691447e-01
      5.9947924938693629e-02 -1.8938928061995198e-02
      -4.5884615874639073e-01 -1.0003650932508400e-01
      -4.1143135117170887e-01 -3.7773269721731062e-01
      4.1207093015531382e-01 1.6492060249178761e-01
      2.6631384589518320e-01 -2.5816957066062562e-01
      6.5074790743729183e-02 -2.7180104947298733e-01
      1.3101094290918266e-01 5.3422171819819897e-01
      -5.0037158692735817e-01 1.0588601958957457e-01
      -4.3025510699917238e-02 -2.2139276882749986e-01
      -2.1865635794891727e-01 1.7785418580009718e-01
      -2.8156647322141848e-01 3.4027024729296934e-01
      5.0298262158553897e-01 2.7451668395557272e-01
      2.5781980059704161e-02 2.9783053312637059e-01
      7.0238062665090709e-02 1.4394251643686987e-01
      3.6329152251603397e-01 -2.2551291271721935e-01
      -3.4281337068914793e-02 1.5032614928255503e-01
      -1.9985373103676049e-01 -2.1012176611856412e-01
      -2.3741313747607556e-01 1.8571644610950266e-01
      -5.9396894150870494e-01 2.5189888391261445e-01
      3.2765782331863634e-02 -6.5997984266767742e-02
      6.8000585869071220e-02 -9.5111787088193886e-02
      7.2119451809257336e-03 3.7653770991580937e-01
      -3.9680364494046200e-01 1.0483435120934997e-01
      3.4349352029149967e-02 -3.1680527456659902e-01
      -1.1817298932492951e-01 5.5803453315923277e-02
      -3.5065427370231696e-02 -1.4251796836736266e-01
      6.0484249785638690e-02 2.5993582557706685e-01
      2.1295251888417860e-01 2.6508671014123919e-01
      1.3392289346089964e-01 1.8189222603597940e-02
      7.6167414137615977e-02 -5.6971616380604032e-03
      1.7037667142801721e-02 7.4011784220542942e-02
      2.3292151800193411e-01 3.8524730469301473e-02
      2.9641772980128416e-02 2.9713314407754327e-01
      -9.5102752468700771e-02 -2.3389602288413683e-01
      -2.9618612743822981e-01 1.5103572878707300e-01
      3.4924210327798057e-02 -5.1212171788604273e-02
      -1.1871384836236717e-01 -2.9721296769657790e-02
      -2.3850547380545284e-01 3.6316401005945231e-01
      -1.7993056815232120e-01 -2.8699173356753649e-01
      -3.2510307518748532e-01 -6.9013843358762927e-02
      2.4777720411806775e-01 7.0186499203586120e-02
      -4.4012998025708722e-01 2.5861335814489511e-03
      1.0891064851587209e-01 1.7189182373779394e-02
      3.1391235562090281e-01 -2.0280962310560639e-02
      4.3724674268264813e-01 4.4845906783589256e-03
      4.4639132069889030e-02 -9.0497593153745531e-02
      2.6225518917018270e-01 -8.4166881452954478e-02
      2.5062348719957768e-03 5.6063472832475281e-01
      6.6856946090503758e-02 -1.2841288722161798e-01
      -3.3244219259525903e-01 1.1553790470209839e-01
      -3.9275145204308626e-01 -4.0011414068972115e-02
      -1.6510285814098694e-02 -1.7516708956197405e-01
      -3.0081238107903924e-01 3.5878885432961471e-01
      -1.1703326922827467e-01 -3.5898923407633393e-01
      -1.4880837160043833e-01 1.6177236314850678e-02
      1.3649784545176619e-01 3.6947486440104144e-01
      -1.7418069051389409e-01 3.3235575188430788e-02
      -6.9117316313977606e-02 -3.9051750174661765e-01
      1.4985538486264533e-02 1.0041325866380441e-01
      3.5985255249131531e-01 -2.6176300611509221e-02
      -2.1107237515705815e-01 -2.7116293591572888e-01
      -5.2675580229311618e-02 -1.8731578631148907e-01
      -2.3228793550940693e-01 7.4526158926547931e-02
      -2.6390779078815535e-01 3.8153732891221016e-02
      -3.4387943375284485e-01 -1.0397051149223280e-01
      -4.7790564045138756e-01 -1.9470330790620460e-01
      -9.5720306911518491e-02 1.1243763396716894e-01
      -9.5803741815998267e-02 4.3952706118431550e-01
      -2.0146041541721532e-01 -2.3147025098186330e-01
      -2.0751860449569595e-01 1.9646714785714248e-01
      -2.4084075822789899e-01 1.4278935905772155e-01
      -1.1831596225784470e-01 1.1424081344530217e-01
      -3.9070995143926784e-01 -2.3813995565250282e-01
      -1.8537546054871207e-01 2.2433744126873945e-01
      -2.0112972107441435e-01 -3.1627351362256884e-01
      -3.1403723086651603e-01 -2.3866988552449056e-01
      -8.6373264886474219e-02 7.5330170934070295e-02
      -2.3743372792260151e-01 3.5881118005219959e-01
      -1.5420781367281508e-01 3.4905643060417724e-01
      -2.8542454217609708e-01 6.6745803740069318e-02
      9.1217469508801538e-02 -1.7267240732162920e-01
      -1.0106028609921400e-01 -6.1949755510757477e-03
      -5.3741946034765620e-02 4.2177679799813106e-01
      -2.8503925915443229e-01 2.5848622392354320e-01
      -2.6492096345652710e-01 2.3221783011380012e-01
      -2.6037692984950972e-01 2.3464529605932774e-02
      -8.1942569814944730e-02 1.0085104514570956e-01
      -3.9194015991826031e-01 -4.6370954849015711e-01
      -2.0840774312008811e-01 1.4159010000183953e-02
      -1.0600835786733004e-01 -1.9146572622246484e-02
      -6.4471940207124448e-02 -1.2788835210563690e-01
      1.9087394893850748e-01 1.6374948952541629e-01
      5.2159775319670872e-02 5.4498236090218832e-01
      2.2168975710332775e-01 1.9678549548222866e-02
      1.1179205787410862e-01 2.3729263165829140e-01
      1.4008084216061445e-01 4.2377633602364025e-02
      -3.2057499400017002e-02 -2.5620974637776350e-01
      1.5935144183075275e-01 -2.8744138857148792e-02
      8.2836133882305887e-02 -6.5584917204469975e-02
      -3.3968124823283902e-01 -1.4612769013222024e-01
      3.4185357374042746e-01 -2.6454762483231132e-02
      -2.7169626892098775e-01 -6.3875535274371106e-02
      1.7170152647521547e-01 -2.0476077693398903e-01
      1.6909469280783096e-01 8.6611414126527383e-02
      2.8418905215288781e-01 1.2140154482075634e-01
      -1.2950703003852379e-01 -8.3080844452429678e-02
      6.0447095697438846e-01 3.0156993073874341e-02
      -5.9186073501777306e-02 4.5645228542148064e-01
      3.4290570063881687e-01 5.8037460988891044e-02
      -3.2460778924572033e-02 3.8640004239806541e-01
      1.0050783239630980e-01 -4.6302756235811579e-02
      -5.7411252672440231e-02 -1.1304172596717121e-01
      -1.8217779919399765e-01 9.6332035272351749e-02
      -1.5355076130835976e-01 6.2658987136216260e-02
      -3.0202602226931691e-01 -2.2339110160525047e-01
      3.1484272123027912e-01 3.4792340835211669e-02
      -2.0583110693932483e-01 2.4757560199357128e-03
      3.0397108141999363e-01 -2.6298802683189121e-01
      9.4316358084942431e-02 -2.0359067715295712e-01
      3.8749704518603795e-01 2.5390158692782289e-01
      -1.2362350155675088e-01 -2.9198176763991135e-01
      -2.6789645193414596e-01 -7.0017335407854486e-02
      -3.3217706957855547e-01 4.3456496983658460e-01
      -5.2056948496927558e-01 2.8516137670143926e-01
      1.3156109357010778e-01 1.0205858653417060e-01
      3.9164448933942725e-01 -6.7888811340850272e-02
      -1.0848475609675678e-01 3.5802425597218196e-01
      -5.6751530405167483e-01 -1.0535207248823494e-01
      1.7456734119902545e-01 2.3036926176899508e-01
      1.1810013500967746e-01 2.9322000272292204e-01
      -1.8970332435764556e-01 6.3779310430802802e-02
      -2.6947101916061611e-01 3.3779103918879899e-01
      1.7087362945292676e-02 9.1024204179989979e-02
      -1.5320187888776890e-01 -8.0612470937174954e-02
      -2.1905516755921639e-01 1.2424202905935645e-01
      -9.6969110357790489e-02 -1.0923178814452771e-01
      -1.5133870989891027e-01 6.2409585607517172e-02
      -2.5150495627723640e-01 -2.5931592975408491e-01
      1.0292168310190046e-01 4.7764456220250934e-01
      5.6521566565388643e-03 7.1557182217808421e-02
      -2.2369162822362604e-01 -1.5804841541761039e-01
      -8.3890145665334676e-02 -1.6157418675967919e-01
      -8.0614491638869010e-02 9.7891146136176138e-02
      -1.9947074994195904e-01 -3.2336372564197252e-01
      3.0125135249238183e-01 6.0415456314215403e-02
      5.8643234646250431e-02 2.4064000618685230e-01
      3.0653217772891747e-02 1.3201205283298514e-01
      1.4729987308801321e-01 1.9049181219378272e-01
      1.1609076106628860e-01 1.6997935489598950e-01
      1.7637036399821168e-02 -3.5700205365755949e-01
      2.1313482581381019e-01 -9.3477148088993697e-02
      3.3018611231521694e-01 2.8058472220456931e-01
      3.0966851199448003e-01 -1.7248706599852337e-01
      1.5467728736426886e-01 -2.3832532096130238e-01
      1.1439314379310268e-01 8.5861567180560552e-02
      -1.5464682975310889e-01 1.9127161683457775e-01
      1.0422352606817079e-01 -5.5553047629885721e-01
      6.2713872623386610e-02 -1.4271736825603371e-01
      2.3671895362751275e-01 -4.4114818688326424e-01
      3.2047414267736274e-01 -2.0457831950404884e-01
      4.6504843453611683e-01 3.3038492335118658e-01
      1.4429486120259094e-03 -2.0049878492750595e-01
      2.2639014210591246e-01 1.6133797185556301e-01
      1.1835251108261381e-01 1.3274155019139992e-04
      1.4550472321651503e-01 -3.5493190048180184e-01
      2.3431654072863814e-01 -5.7932852797004220e-02
      4.9785323574058044e-01 2.5332709891009664e-01
      4.0373324179735420e-01 -2.1115613258724142e-01
      6.5454850455499661e-02 -5.7463736325536169e-02
      2.4260196509939203e-01 6.9332153023795556e-02
      -1.0084680521426510e-01 2.6475669344229985e-01
      1.0218210298741535e-01 -6.1457420723777467e-01
      4.3289764893175216e-02 -2.6541894591854687e-01
      2.5226638435840881e-01 -3.2918097679904751e-01
      3.2681054367584517e-01 -2.1962963385193043e-01
      4.7099151709057413e-01 8.4514965814797630e-02
      -5.0008792887751362e-02 -2.1575712167662783e-01
      1.8113715875838182e-01 1.9316477416745698e-01
